112 100
的 0.337889 -0.156614 -0.388250 0.202173 -0.162512 -0.358991 -0.163929 0.526866 0.393771 0.050959 -0.021068 -0.100660 -0.154322 0.432046 0.214755 0.181282 0.371112 -0.037876 -0.428682 0.539940 0.673293 -0.018027 -0.074510 0.235961 0.671996 0.668633 -0.347944 0.322908 -0.136739 0.220398 0.419198 0.280377 0.496201 0.204886 -0.119319 0.284351 -0.220542 -0.193916 0.225235 -0.114778 -0.253952 -0.479695 -0.086500 0.250079 -0.436068 0.198957 -0.227273 0.298547 -0.140788 -0.223108 -0.120173 0.085431 0.651263 0.355546 0.300716 -0.258830 0.380547 -0.224821 0.379920 0.373187 -0.415065 0.056710 0.527817 0.072222 -0.491333 -0.324567 -0.246918 -0.101719 -0.390268 0.181118 0.433564 0.339406 0.183960 -0.675893 -0.010951 -0.431313 -0.242386 0.111235 0.094491 0.745591 -0.330160 0.116773 0.316138 0.136797 0.486078 0.628598 0.022556 0.186530 -0.371948 0.491356 -0.154968 -0.506229 0.216733 0.030982 0.347688 0.019336 -0.216100 0.660322 -0.383576 0.270223
我 0.250074 -0.383327 0.342876 0.448546 -0.057311 -0.176541 0.024267 -0.152170 -0.450009 -0.253721 -0.295209 0.163540 0.181934 -0.093368 -0.152983 -0.284525 -0.069423 -0.019115 0.135993 0.307569 -0.023633 -0.272084 0.202086 0.048652 -0.021371 -0.014992 -0.244966 0.027632 -0.675206 -0.038368 0.164429 0.265797 -0.102061 -0.098276 -0.052476 -0.111918 -0.134700 -0.018745 0.434637 -0.362677 0.160428 0.189301 0.246727 0.000591 0.010586 -0.376198 0.014959 -0.183874 0.044494 0.397775 0.150205 -0.143367 -0.414784 0.378476 0.277327 0.004984 -0.158177 -0.190833 -0.196043 0.304515 0.157181 0.382463 -0.462316 -0.264262 -0.136707 -0.046652 -0.021698 0.211863 -0.052471 0.019749 -0.677192 0.137609 0.115658 -0.064086 0.302761 0.078946 0.225823 -0.001848 0.322475 -0.109252 0.427236 -0.361112 -0.388958 -0.200497 0.273749 0.047790 0.599919 0.697351 -0.027713 0.194747 -0.015800 0.247113 -0.007568 0.238685 0.093401 -0.193683 -0.094349 -0.526303 0.168623 -0.078593
， 0.369612 0.265266 0.161443 -0.146648 -0.135074 -0.237028 0.406327 0.242396 0.670297 0.297365 -0.420348 0.846894 0.391498 0.737140 0.180727 -0.521461 0.245612 0.079034 -0.561768 -0.042199 -0.022734 0.336699 0.451769 0.345339 0.353381 0.481825 -0.244448 0.421032 0.355941 0.486803 0.747585 0.605531 0.534820 0.270103 0.170203 0.134582 -0.816400 0.521030 0.463678 -0.037144 0.146091 -0.575540 -0.149264 -0.181671 0.143664 0.372831 -0.398680 0.454975 -0.154947 -0.098945 0.300709 0.259905 0.469986 -0.133459 0.528400 0.160998 0.430937 -0.416668 0.550330 -0.225171 0.298849 -0.550716 0.347818 -0.460100 -0.493271 0.222904 -0.213385 -0.202286 -0.267125 0.279302 0.000353 0.156900 1.128533 -0.276048 -0.606016 -0.251128 -0.201991 0.346491 -0.114899 0.798597 -0.079206 -0.600666 0.439458 -0.114916 0.273360 0.312427 -0.151525 0.059115 -0.197217 -0.040217 0.003297 -0.470301 -0.025715 -0.247121 0.663160 -0.011138 -0.070632 0.227320 -0.205741 -0.172442
你 -0.021236 -0.304609 0.175362 -0.354369 -0.164918 0.008405 -0.084018 -0.055008 -0.219618 0.127259 -0.375654 -0.131956 0.533933 0.021930 -0.791981 0.277666 -0.405709 -0.090864 0.394471 0.054201 0.348134 -0.024300 -0.189058 0.236378 -0.024138 -0.407545 -0.322397 0.048030 0.020096 0.313365 -0.093688 0.169608 0.187004 -0.036330 -0.362608 -0.310963 -0.376293 -0.233981 0.130528 -0.325143 0.560380 0.406232 0.306168 0.138538 -0.388534 -0.389031 -0.180312 -0.144864 0.336836 0.297189 0.045561 0.418705 -0.565351 0.271132 -0.009040 -0.166048 0.196613 -0.366323 0.052842 0.467019 -0.053368 -0.021183 -0.008630 -0.132757 0.246327 -0.150096 0.092155 0.342804 0.317817 -0.218690 -0.285684 0.335479 -0.162938 -0.126314 0.064531 0.116707 0.219250 -0.009561 -0.019465 0.021013 0.196886 -0.024613 -0.147203 -0.158511 -0.041063 0.011865 0.332648 0.208007 -0.212392 -0.149406 0.020562 0.223835 0.131462 -0.061689 0.257248 -0.384047 -0.329141 -0.081911 0.410975 -0.478138
了 0.590759 0.323741 -0.025913 -0.070615 0.180427 -0.392375 -0.230859 -0.164250 0.188681 -0.010229 -0.246253 -0.065893 0.104932 0.305632 -0.187786 -0.434123 -0.350563 -0.176105 -0.083428 0.239125 -0.151343 -0.302922 -0.155441 -0.093404 0.157301 0.693005 -0.067285 0.400317 0.490793 -0.020834 -0.037123 0.449297 -0.090611 0.498183 0.129205 -0.289701 -0.077043 0.764275 0.489623 -0.451708 0.460647 0.191309 0.318132 0.016183 0.053776 0.433463 -0.284087 0.477425 0.237608 0.594468 0.198880 0.101613 0.150875 0.139983 -0.066979 -0.437153 0.104311 -0.028635 -0.148636 -0.367067 -0.118341 -0.195971 0.037042 0.020624 -0.233164 0.132822 -0.306397 -0.024377 -0.470093 0.147921 0.103105 -0.126315 0.996672 0.051911 -0.218421 -0.270576 -0.432570 0.459893 -0.052218 -0.202559 -0.157038 -0.565836 0.135046 0.334733 0.086891 0.140256 -0.072446 0.064321 -0.235009 -0.038642 0.007760 0.058642 -0.091653 0.198571 -0.040561 0.281105 0.365189 -0.087504 0.369961 -0.011105
妳 -0.224882 -0.023447 0.589086 -0.327795 -0.252380 0.096803 -0.206382 -0.247019 0.056661 0.297387 -0.636541 -0.056131 0.674839 0.089198 -0.914136 -0.230774 -0.333440 0.075126 0.293023 -0.063190 0.158003 0.249571 -0.035961 0.425278 0.100525 -0.388241 -0.275503 -0.071317 -0.109009 0.261891 -0.046124 0.140706 0.037654 0.145470 -0.569767 -0.346887 -0.317818 -0.127374 0.132693 -0.237522 0.526924 0.298110 0.356389 0.336875 -0.024887 -0.410941 -0.200170 -0.191514 0.603124 0.357765 0.065471 0.252698 -0.590712 -0.011517 0.107870 -0.004364 0.141580 -0.215297 -0.036761 0.208455 -0.061912 -0.080800 -0.435343 -0.269942 0.324284 0.021592 0.270971 0.342539 0.439351 -0.037744 -0.635628 0.255114 0.152700 -0.011621 -0.091982 0.111664 0.072202 0.087383 -0.254633 -0.077182 0.170421 -0.223261 -0.112118 -0.227517 -0.086842 0.027146 0.160880 0.437750 -0.131148 -0.413885 0.095524 0.256023 0.000054 -0.040824 0.338964 -0.344366 -0.214409 -0.285599 0.392281 -0.453895
是 0.179427 -0.058023 -0.176515 0.550116 -0.699525 -0.335783 0.131930 -0.478111 0.476963 0.171009 0.169151 0.002977 -0.155381 0.736632 0.291920 0.207236 0.136522 0.052400 -0.220906 0.274705 0.420814 0.170508 0.425650 -0.612000 0.269252 0.355147 -0.267351 0.029770 0.380787 0.121224 0.123772 0.401525 0.149849 -0.021006 -0.028966 0.130195 -0.706646 -0.111544 -0.018439 -0.322576 0.570042 -0.181494 0.210446 0.032227 0.123327 0.436495 -0.436079 -0.203483 -0.368986 -0.399886 -0.052318 0.066452 0.623276 0.090309 0.290274 -0.375567 0.260957 0.071105 0.161214 0.162568 0.213719 -0.235858 0.236474 0.218211 -0.141602 -0.242605 0.162049 0.240211 0.258958 0.124715 0.272140 -0.172774 0.060393 -0.352297 -0.373278 -0.013600 0.038447 -0.140373 0.454542 0.180302 -0.105929 0.095211 0.401235 -0.311741 0.416274 0.111520 0.069605 0.023771 0.050103 0.219078 -0.142357 -0.563670 0.462459 0.066561 0.235855 -0.285750 -0.253581 0.797330 -0.240586 0.249965
在 0.159174 -0.615605 -0.222579 -0.328635 -0.113831 -0.299294 -0.159461 -0.470039 0.333342 0.217607 0.475255 0.211837 -0.129877 1.215138 0.722548 0.416163 0.509928 -0.403857 -0.456806 -0.002909 -0.055822 -0.047895 -0.131358 0.094556 0.196693 0.577409 -0.154213 -0.129156 0.480736 -0.255576 0.746049 0.476089 0.599097 0.135419 0.485820 0.396229 0.140449 -0.264886 0.159009 -0.557499 0.438005 -0.247746 -0.083660 0.514209 -0.087853 0.421227 0.089794 0.031008 -0.213183 -0.301360 0.466609 0.744062 0.568731 0.201696 0.300090 -0.358399 0.496332 0.166379 0.493515 -0.065425 0.683388 -0.592394 0.449213 0.543927 -0.665120 0.008772 0.146855 0.756931 -0.325446 -0.168955 0.474113 0.309548 0.229791 -0.299770 -0.368589 -0.242313 -0.339879 0.212165 -0.097623 0.621619 0.418855 -0.243045 -0.039794 -0.033902 0.275194 0.455050 0.287394 -0.175310 -0.320642 0.580180 -0.189263 -0.567559 0.599724 -0.249607 0.068549 0.003694 -0.092748 0.116768 -0.870187 -0.337021
、 0.252408 0.534368 -0.297947 -0.453492 -0.404478 0.310318 0.415037 -0.214937 1.023645 -0.765406 -0.353511 -0.027516 1.420730 1.314877 -0.501422 0.041993 0.404616 0.055896 -1.187060 0.617218 -0.025170 0.688232 1.387489 1.384564 1.044745 0.823025 -0.949433 0.094401 0.217822 0.281012 0.937898 0.476160 0.619172 0.712803 -0.446208 0.676891 -0.624991 0.389788 0.150669 0.033075 -0.724964 -0.192716 -0.435095 0.114712 0.063086 0.623077 -0.666037 0.209511 -0.138762 -0.346139 0.647213 0.715040 0.726913 -0.162296 1.263507 0.014428 0.500534 -0.450402 0.479559 1.056746 0.409361 -0.073224 0.469642 -0.103657 -1.083167 -0.051106 -0.026054 0.033170 -0.726801 -0.070568 -0.028216 0.738135 0.838955 -0.967659 -0.757275 0.066832 -0.753660 0.656173 -0.225088 1.100480 0.306119 -0.112735 -0.106359 -0.151032 0.355516 0.928342 -0.822581 0.313298 0.224292 -0.092931 0.715378 -0.951976 -0.047132 -0.081101 0.731624 -0.444002 -0.092397 0.251669 -0.397547 0.312780
不 -0.637264 -0.298579 0.126416 0.507583 -0.068265 -0.104225 -0.503582 -0.422854 0.447883 0.143669 0.034900 -0.292738 0.017457 0.138618 -0.472060 0.000660 0.258861 0.091252 0.611528 0.312888 0.113656 -0.156714 -0.147082 -0.118142 0.054935 0.629313 -0.479823 -0.087199 -0.497263 0.205384 -0.310602 -0.014218 -0.406282 -0.047081 0.379959 0.431885 -0.189734 0.033920 0.029423 -0.241493 0.058289 -0.064519 0.622367 0.221737 0.332080 -0.390496 -0.402145 -0.029552 0.227491 0.116264 0.217449 0.037818 0.405973 0.005235 -0.065485 -0.039281 0.025229 -0.069161 0.327487 0.339739 0.440353 0.098399 0.192230 -0.163780 -0.294315 -0.421228 -0.204283 0.259690 0.265982 -0.025647 -0.301704 0.405784 0.499981 0.192430 -0.192107 -0.542752 0.047068 -0.482513 0.312528 -0.509852 -0.046379 -0.075377 0.286035 -0.456230 0.151447 -0.200957 0.639283 0.294247 -0.000706 -0.530190 0.332085 -0.271711 0.641392 0.338965 0.290345 0.408348 -0.131385 0.375664 0.189920 -0.180913
他 0.030568 -0.107198 0.215494 -0.332970 -0.056818 -0.069672 -0.202594 -0.229370 -0.172610 0.181893 -0.207839 -0.019542 0.160189 0.194933 -0.313479 0.001599 0.016618 -0.220632 0.064619 0.271420 0.221137 -0.024908 -0.035342 0.438824 0.189125 -0.065962 -0.374217 0.126605 -0.290492 0.275856 0.056627 0.368257 0.285609 -0.038791 -0.414492 -0.134504 -0.303269 0.031096 0.338410 -0.159511 0.218204 -0.082533 0.048662 0.242788 -0.168926 -0.061581 -0.047653 -0.098926 0.046217 0.209692 0.227158 0.471224 -0.183487 0.187280 0.225942 0.035123 0.283276 -0.290462 0.020899 0.346317 -0.152847 0.177923 -0.075135 -0.090114 -0.102484 -0.110530 -0.116206 0.337254 0.010271 -0.217749 -0.344827 0.194738 0.137457 -0.193582 0.068411 0.020217 0.146963 0.121350 0.061725 0.209716 0.074964 -0.249697 -0.176325 -0.176946 0.227517 0.251076 0.476172 0.420929 -0.228747 -0.051702 -0.047637 -0.179222 0.177942 -0.296496 0.203679 -0.122197 -0.261779 0.097533 -0.088306 -0.058257
有 -0.114813 -0.053245 -0.237751 0.331042 -0.347406 0.243330 -0.378241 -0.080982 0.366816 -0.064541 0.131428 0.085932 0.021429 0.459072 -0.239170 0.348492 0.036821 0.071343 -0.093194 0.253431 0.252565 0.073585 0.051689 0.293623 0.175719 0.336717 -0.555471 -0.089043 0.040400 -0.107721 0.046278 0.214170 0.347540 -0.107053 -0.190691 0.187465 -0.344243 -0.141100 0.158191 0.093436 0.246150 -0.249467 0.230475 0.290557 0.182205 0.097212 -0.352148 -0.113470 0.210774 -0.169809 0.283074 0.408276 0.260855 -0.101886 0.324995 -0.138189 0.291309 -0.105991 0.070640 0.465479 0.196674 0.072208 0.144327 0.022235 -0.538361 -0.268671 -0.020019 0.055951 -0.084038 -0.255158 0.029388 0.243969 0.010801 -0.206798 -0.377492 -0.094289 -0.031890 -0.037126 -0.114062 0.187391 -0.221979 -0.123657 -0.442680 -0.004847 0.180118 0.239948 0.281894 0.034361 -0.083105 -0.066132 0.247104 -0.371121 0.343657 0.085106 0.240735 -0.313931 -0.215837 0.415558 -0.321578 -0.068097
嗎 -0.017294 -0.428026 -0.116695 0.090602 0.033859 -0.102594 0.038627 0.158732 -0.185870 -0.404958 -0.414318 0.170801 0.325828 -0.299131 -0.057472 -0.711313 0.053966 -0.043210 0.371194 -0.023087 0.105837 0.151007 0.011329 0.073415 0.084609 0.373601 -0.011330 0.060655 -0.158259 -0.245588 0.180122 -0.058929 -0.051564 -0.117610 0.229042 0.424088 0.466598 0.070314 0.296359 -0.211989 -0.069982 0.263710 0.161456 -0.042748 -0.348433 -0.180744 0.029853 -0.187367 0.173847 0.276128 0.158584 -0.224241 -0.388179 0.482358 -0.181046 -0.191079 -0.018513 -0.363143 0.175912 0.181530 0.240754 0.062819 -0.290125 -0.314486 -0.004485 0.152421 -0.155869 -0.121945 0.337055 0.402749 -0.300604 0.504275 0.178700 -0.231817 0.094051 -0.139165 0.072293 0.229908 0.075420 -0.038605 -0.009932 -0.206572 0.080879 0.343916 0.381741 -0.206797 -0.219136 0.448336 0.199041 -0.290136 0.028731 0.248743 -0.118304 0.066999 0.431531 -0.028259 0.106148 -0.419038 0.296289 0.150363
好 0.265043 -0.035731 0.413847 -0.129739 0.140099 0.434786 0.091512 0.332854 0.276537 -0.317562 -0.098906 -0.162357 0.543539 0.584695 -0.414961 0.095670 -0.510866 0.314474 0.322537 0.218565 -0.154939 0.086934 0.495840 0.233187 -0.015895 -0.277951 0.427559 -0.289146 0.330135 0.050630 -0.306789 0.320373 -0.517906 0.467478 0.070877 -0.166216 -0.248427 -0.441747 0.370702 0.164832 0.359219 0.205927 -0.088165 -0.096099 0.322834 0.000875 -0.160983 0.187829 0.470860 0.042465 0.132295 -0.146949 -0.262177 -0.320796 -0.038859 -0.286345 -0.476667 0.142947 -0.353036 0.294562 0.222604 0.098557 -0.789750 -0.339583 -0.042609 0.161660 0.318781 -0.232134 -0.379550 0.233120 -0.134206 -0.327018 0.104792 0.065967 -0.462989 -0.291379 0.297599 -0.009762 -0.559590 -0.058728 -0.174056 -0.827879 -0.192269 -0.072146 -0.463580 0.000459 -0.050394 -0.060297 -0.683830 -0.531661 0.598723 -0.279057 0.035810 0.211345 0.131697 -0.058513 0.147353 -0.538910 0.410354 -0.560829
跟 -0.359459 -0.246616 0.478218 -0.285782 0.019758 -0.266820 0.121069 -0.031513 0.290363 -0.040931 0.000839 0.361576 0.304129 -0.110099 -0.308196 0.188675 0.005488 -0.018251 -0.039829 0.031412 -0.200839 0.146439 0.304049 -0.376738 0.084215 -0.049391 0.485682 -0.703690 0.347951 -0.583694 0.292754 0.201670 0.199094 0.518889 0.189601 0.298052 0.589906 0.008652 -0.092177 -0.157010 -0.065675 0.711558 0.071060 -0.079674 0.256948 -0.079365 0.275000 -0.355955 0.203046 -0.113197 0.083692 0.114098 0.134179 0.454495 -0.173860 -0.023496 0.309586 0.055426 -0.560615 0.223713 0.523421 0.537202 -0.075161 0.445188 -0.234165 0.352846 0.126056 0.396988 0.376671 -0.181327 0.232744 0.175415 -0.033252 -0.319622 0.322510 0.228707 -0.010748 0.277716 0.062645 -0.257899 0.291386 0.350327 0.450578 0.254596 -0.284777 0.191125 -0.125116 -0.283968 0.016878 0.448185 -0.534952 0.458300 0.036323 0.015775 0.077316 -0.039940 -0.068378 -0.487099 0.225022 0.219344
都 -0.158945 -0.492860 -0.107688 0.122443 -0.175717 0.181203 -0.047402 0.610807 0.131007 0.130626 -0.162587 0.046111 0.340018 0.067362 0.053655 -0.135532 0.182970 -0.052898 0.003226 0.037537 0.487479 -0.189154 -0.153288 0.329763 0.144869 0.339364 0.252480 0.024999 -0.093522 -0.066000 0.044665 0.166928 0.477573 -0.180584 -0.039247 0.333738 0.079266 -0.232538 0.077957 0.238520 -0.020559 -0.168977 -0.077223 -0.008084 -0.399163 0.031046 0.006242 0.222924 0.164674 -0.114205 0.147240 0.375144 -0.221428 0.031667 -0.180399 -0.092333 0.038172 -0.652508 0.283464 0.075958 0.072660 -0.146922 0.221380 -0.194759 0.045010 -0.036513 -0.314253 0.177404 0.089064 0.183887 -0.013423 0.681957 0.203739 -0.283187 0.112087 -0.270197 0.166491 0.103680 -0.181208 0.373079 -0.200136 0.131982 0.214460 0.471397 0.440322 0.420707 -0.180455 -0.037418 0.117647 -0.101149 -0.198517 0.130092 0.125092 0.032452 0.346188 -0.334451 -0.223581 -0.068608 -0.084093 -0.142561
要 -0.361036 -0.439891 0.423821 -0.152871 -0.300785 -0.257563 0.184789 -0.187932 0.478358 -0.318282 -0.177371 -0.383244 -0.141892 -0.134472 -0.152271 0.170854 0.324286 0.075777 0.061596 0.230550 0.276316 0.511516 0.370513 -0.044203 0.084397 -0.025610 -0.186770 -0.598730 0.075879 -0.094000 -0.589816 -0.022276 -0.343059 0.286894 -0.153714 0.493822 -0.518620 0.095722 0.309361 -0.322813 0.197772 0.326881 -0.114464 -0.267442 0.024348 0.628745 -0.023051 -0.561094 0.092707 0.137840 -0.081557 -0.142679 0.098322 0.347874 0.056894 0.452255 0.147494 0.211020 0.063570 0.448196 0.277897 0.302151 -0.513017 -0.076325 -0.161936 -0.338761 0.111829 0.320780 0.309973 -0.170720 -0.158287 -0.049342 -0.361066 -0.492270 -0.001845 0.039624 0.187103 0.212443 0.176622 -0.251248 -0.227355 -0.476329 -0.472747 0.026913 0.148917 -0.262987 0.183910 0.041633 -0.317386 0.167173 -0.422496 -0.097769 -0.139589 0.275097 0.492007 0.323054 -0.185409 0.125176 0.162277 0.120440
就 -0.109392 -0.452072 0.197880 -0.298609 0.363656 -0.231450 0.177846 0.047185 -0.462609 -0.115096 -0.256692 0.009252 0.583046 -0.098014 0.033200 -0.323398 -0.112432 -0.332014 0.187901 0.177006 0.033998 0.006292 0.078458 -0.003492 0.046222 0.276461 0.242274 0.147251 0.034505 0.295217 -0.147412 0.333256 0.076272 0.217155 -0.102415 0.230135 0.168092 -0.030414 0.281683 -0.223821 -0.633806 0.178427 -0.006989 -0.146179 -0.430438 -0.114147 0.153314 -0.062502 0.126961 -0.112193 0.237697 0.374810 -0.354860 0.254075 -0.395554 -0.161894 -0.324397 -0.382367 0.677355 -0.009221 0.119489 -0.151051 0.084424 -0.421835 0.362926 0.276104 -0.223994 0.128191 0.169688 0.567803 0.229624 0.319257 0.264648 -0.323868 -0.228695 -0.297822 0.193008 0.198517 -0.065363 0.361984 -0.174220 -0.063598 0.180035 0.465791 0.238822 0.272351 -0.290625 0.310181 0.157390 -0.769536 0.056253 0.221233 0.307355 -0.059331 0.233495 0.085859 -0.383012 -0.447467 0.054697 0.251630
什麼 -0.409804 -0.943256 0.146945 0.082757 -0.735832 -0.390172 0.093727 0.201291 0.523868 -0.052633 -0.196860 -0.316968 0.678424 -0.226587 -0.479260 0.139563 0.398819 -0.152316 -0.595017 0.354077 0.918515 0.314103 -0.176064 -0.368572 0.206753 0.485590 0.165634 0.091183 -0.646097 -0.181915 -0.560562 0.316399 -0.080321 0.433974 -0.144590 -0.001198 0.021809 0.142324 -0.184886 -0.279958 0.440267 0.421430 0.513449 -0.814469 -0.245005 0.015973 0.015936 0.072080 0.519106 0.632512 -0.241818 -0.347861 -0.064188 0.111400 0.788864 -0.403238 -0.075031 -0.152245 0.087093 -0.382747 0.323097 -0.258978 0.249077 -0.512853 0.518456 0.178352 -0.271019 0.747569 0.305433 0.734209 -0.222931 0.666594 0.203137 -0.591237 0.752651 -0.438442 -0.071657 0.220818 0.873439 -0.190773 0.134683 -0.114293 0.398842 0.490489 0.361797 0.174757 -0.350309 -0.139855 1.163592 0.580940 -0.485633 0.475581 -0.259620 0.260633 -0.640819 0.131254 -0.633375 -0.275869 0.462415 -0.528453
為 -0.202208 -0.409993 -0.605106 0.209678 -0.379800 0.181748 -0.179780 0.635307 0.852004 -0.101806 -0.039413 0.337084 0.121855 0.778321 0.126908 -0.174345 0.380085 0.119142 -0.078310 -0.076915 0.442953 0.418195 -0.124162 0.236541 0.577857 0.546375 -0.263984 0.130956 0.123063 0.422050 0.243954 0.529516 0.328550 -0.272926 0.483103 0.431130 0.068113 0.093299 0.033054 0.148037 0.323719 -0.193751 0.349883 0.141296 -0.281072 0.613902 0.005582 0.548581 -0.049775 -0.253648 -0.000456 0.480381 0.296187 -0.120136 0.139956 -0.249872 0.288876 -0.199040 0.558594 0.149946 0.281576 0.018174 0.339099 -0.179164 -0.514696 -0.590383 -0.357754 0.176901 -0.304432 -0.110660 0.185968 0.670510 -0.058741 -0.389330 0.330828 -0.550943 0.079907 0.015719 -0.329672 0.417193 -0.344239 -0.375371 -0.196791 0.586700 0.215659 0.009636 0.101635 -0.432477 0.052853 0.339809 0.003666 -0.709168 -0.076971 -0.112193 0.442910 -0.474999 -0.157707 0.449319 -0.673618 -0.160950
現在 0.020006 -0.184634 0.194086 -0.065383 0.082812 -0.037241 -0.020349 -0.079234 0.297856 0.129738 -0.012250 0.262143 -0.125875 0.261807 -0.069100 -0.152236 -0.036696 0.048029 0.173673 0.174955 0.086815 -0.166458 -0.074788 -0.145908 0.092451 0.286726 -0.113928 -0.199043 -0.172000 -0.160672 -0.068511 0.318223 0.058461 -0.158409 0.025187 0.310604 -0.132825 0.056075 0.416701 0.138796 0.293132 -0.104840 0.226223 -0.071880 -0.096637 0.348231 0.016694 0.025572 0.059271 0.082047 0.211583 0.185599 0.003998 0.086369 -0.296913 -0.030560 0.346870 -0.102328 -0.373716 0.146573 0.177554 0.466353 -0.033869 -0.089864 -0.301120 0.081793 0.064550 0.081560 -0.002068 0.162143 -0.040253 0.026369 0.020758 0.090405 0.181060 -0.130269 0.293196 0.168134 0.166404 0.049921 -0.276947 0.113044 0.448645 0.354680 0.027887 -0.023247 0.323928 0.046255 0.026754 -0.032587 -0.245929 -0.060085 0.127914 0.072104 -0.108726 0.072148 0.091006 -0.009763 0.239853 -0.056260
說 -0.223820 -0.210636 -0.328933 0.476677 -0.162089 0.698941 -0.576837 0.486715 0.277109 -0.080497 0.241775 0.464327 0.309225 0.058225 -0.174357 -0.054527 -0.177674 0.220594 0.378802 -0.167159 0.246554 0.170659 -0.160228 0.379892 0.122536 0.207866 0.072306 -0.048367 -0.082859 -0.514648 -0.106221 -0.149265 -0.024369 -0.223297 0.178975 0.181160 0.351820 0.152746 0.204021 0.456576 0.581940 -0.250274 0.257465 -0.046700 0.155022 0.163527 -0.264464 -0.279175 0.408317 0.184918 0.164760 -0.017890 -0.268719 -0.175479 0.074997 -0.144581 0.277345 -0.053505 -0.347963 0.159237 0.275509 0.323146 -0.372003 -0.379096 -0.528919 -0.055834 -0.046268 -0.227565 0.258313 0.105973 -0.236602 0.458900 0.035316 -0.004083 -0.058957 -0.012608 0.034142 -0.268605 -0.009226 -0.216283 -0.242763 -0.282484 -0.079201 0.425382 -0.003559 -0.090643 0.116204 -0.270586 -0.053783 -0.334989 -0.187284 0.019046 0.273478 0.214192 0.038973 -0.040443 0.185621 -0.268251 0.263933 -0.218836
她 -0.118815 -0.104971 0.363687 -0.179137 -0.081800 0.001302 -0.160995 -0.161227 -0.257745 0.074429 -0.214571 -0.061722 0.311468 -0.085024 -0.537753 0.046410 -0.155469 -0.112324 0.197424 0.300323 0.230515 -0.026292 0.045425 0.418784 0.071900 -0.128903 -0.322993 0.002011 -0.359588 0.084681 -0.085103 0.244646 0.127299 0.017595 -0.443331 -0.083276 -0.308949 -0.004080 0.275387 -0.061128 0.123680 0.084605 0.073390 0.095988 -0.041723 -0.263361 -0.103679 -0.224368 0.228351 0.312675 0.241930 0.341458 -0.387576 0.165167 0.189623 0.097003 0.183223 -0.362176 -0.107158 0.340002 -0.109511 0.180006 -0.232640 -0.146939 -0.051165 -0.095451 -0.023785 0.263115 0.191161 -0.220716 -0.494431 0.242885 0.129321 -0.102013 0.050240 0.103620 0.173121 0.083979 0.106199 0.040144 0.105735 -0.222550 -0.277037 -0.161485 0.111990 0.195667 0.434397 0.431335 -0.134178 -0.160283 -0.004069 0.065269 0.152648 -0.068577 0.268268 -0.201308 -0.176696 -0.137240 0.164631 -0.127146
我們 0.141643 0.022409 0.386681 -0.099502 0.143609 -0.239037 -0.329952 -0.152407 -0.299563 -0.135060 -0.264923 0.254718 0.215720 0.203751 -0.116217 -0.076604 -0.110326 -0.117169 -0.003365 0.230371 -0.009090 -0.013724 0.291836 0.232482 0.121451 -0.109165 -0.051026 0.009291 -0.241182 0.238158 0.259328 0.540338 0.067130 0.344023 -0.104033 -0.152391 -0.128785 0.069478 0.450827 -0.429506 0.122659 0.247650 0.197912 0.228765 0.127731 -0.191593 -0.106484 -0.115785 0.013364 0.350471 0.149425 0.210669 -0.309153 0.372141 0.067387 -0.106629 0.125556 -0.274789 0.006633 0.274507 0.019416 0.163574 -0.319061 -0.167804 -0.200551 0.151302 0.238968 0.440022 -0.183612 -0.308769 -0.273139 0.146669 0.112754 -0.262890 0.215042 0.114489 -0.095359 0.076611 0.007648 0.132306 0.561525 -0.193256 -0.095063 0.051761 -0.004146 0.152514 0.405111 0.471724 -0.376074 0.223496 -0.036099 0.225175 -0.026536 -0.092313 0.112072 -0.158273 -0.118850 -0.452156 0.155061 -0.022995
這麼 -0.075300 -0.255159 0.044124 0.612548 -0.367013 0.316101 -0.203355 -0.237542 0.438367 -0.210550 -0.079601 0.146140 0.046386 -0.788758 -0.312945 0.236669 0.119338 0.241234 0.008254 0.093574 0.357579 0.073534 0.417107 0.050098 -0.319716 0.057259 0.219805 -0.193119 0.646251 -0.708712 -0.270417 0.238629 0.120301 0.355014 0.080140 -0.022264 -0.366209 0.134637 -0.026870 0.301268 -0.227666 0.460749 0.852067 -0.576363 0.049694 -0.471041 -0.414678 -0.093813 0.628593 -0.013262 0.322938 -0.035085 0.149316 -0.174293 1.218524 -0.233394 0.343888 -0.500248 -0.473246 -0.108271 0.706354 0.266903 0.397014 0.002028 0.256772 0.605384 -0.568567 -0.315023 0.942136 0.183266 -0.325512 0.489544 0.297809 -0.287971 -0.083819 -0.557178 -0.510564 0.317590 0.280479 -0.635104 -0.312149 -0.093683 -0.348795 0.607985 0.038379 0.667651 -0.254597 0.003314 0.518574 -0.234106 -0.473309 0.626627 0.251614 0.275578 0.362809 -0.069409 0.231484 0.102658 0.427891 -0.084311
也 0.228538 -0.099569 -0.263195 -0.002221 -0.093718 -0.177347 0.023582 0.217388 0.072361 0.246785 -0.103654 0.059278 0.463097 0.147434 0.094071 -0.170720 0.181937 -0.061851 -0.124577 0.140812 0.358237 -0.180390 0.206581 0.176877 0.248237 0.273311 0.103728 0.216599 -0.238064 0.019639 0.369507 0.066478 0.377498 -0.103001 -0.194486 0.218781 -0.182298 -0.423698 0.073358 -0.023199 -0.130820 -0.429268 -0.340473 -0.085331 -0.097030 0.008247 -0.017653 -0.239751 -0.006594 -0.313421 0.290805 0.270637 0.070861 0.156268 0.145630 -0.081764 0.020564 -0.425054 0.405610 0.279385 0.087525 -0.040330 0.242544 -0.173400 -0.138939 0.181904 -0.167597 0.006145 0.042558 0.343754 0.025751 0.364291 0.370352 -0.440563 -0.149035 -0.202250 0.287080 -0.143772 0.069794 0.598816 -0.006149 0.031145 0.558513 -0.015073 0.461195 0.589890 -0.150965 0.090228 -0.023557 -0.299444 -0.049145 -0.226750 0.348505 -0.267038 0.151692 -0.362325 -0.470651 0.023694 -0.183867 -0.016305
會 -0.324598 -0.446408 -0.079645 0.313204 -0.330216 -0.366351 -0.365164 -0.039407 0.284847 -0.134658 0.347576 -0.098350 -0.125455 0.209068 0.010214 0.274357 0.128308 -0.092962 0.542775 0.397150 0.045864 0.130712 -0.233428 0.341468 0.651729 0.003024 0.074501 -0.561542 0.387693 0.292955 -0.623694 -0.166030 -0.196883 -0.028169 -0.217504 -0.241458 -0.362931 -0.103903 0.106516 0.100807 0.055635 -0.049946 0.139188 -0.415998 0.376825 -0.125740 0.167044 -0.214711 -0.058669 -0.196906 0.042011 0.197088 0.089118 0.655288 0.561811 0.393225 0.304070 0.284602 -0.098681 0.559517 -0.250050 0.395063 -0.238125 0.057006 -0.359887 -0.234865 0.224212 0.243510 0.478908 0.036132 0.457299 -0.030498 -0.241132 -0.433281 -0.400334 0.138647 0.350169 0.436766 0.676533 -0.464871 -0.427133 -0.010346 -0.539328 -0.310976 0.315230 0.043961 0.539357 0.374179 -0.494687 0.222491 0.007931 -0.467033 0.652641 0.511181 0.210452 0.738126 -0.393927 0.263711 -0.738734 0.305743
很 0.251906 0.239199 -0.108972 0.498742 -0.311715 -0.257661 -0.041702 -0.786939 0.431565 -0.175388 0.056042 -0.481714 0.391256 0.371612 -0.372256 -0.493511 0.071585 -0.054440 0.309517 0.442019 0.076423 0.006051 0.736288 -0.479184 0.286725 0.589087 -0.007248 -0.022897 0.261130 -0.420927 0.502941 -0.106408 -0.249468 -0.162211 -0.246853 0.290256 0.108167 0.069194 0.289652 -0.270044 0.004992 0.121964 0.350708 0.210999 0.139504 0.117616 -0.461032 -0.711038 0.089227 -0.070397 -0.023789 -0.232941 0.377467 0.233928 0.189119 -0.070849 0.223158 -0.190030 -0.465940 0.620854 0.329952 0.219216 -0.315024 0.054662 -0.425874 0.423599 -0.249167 -0.324480 0.694354 0.019129 -0.163234 -0.093087 0.443899 -0.114396 -0.456906 0.128433 -0.234153 0.015841 0.721972 -0.196485 -0.041426 0.097199 0.333179 -0.509413 0.352605 0.417011 -0.505138 0.580315 0.225701 -0.447118 0.310228 -0.335788 0.624011 0.231411 0.456799 -0.376998 0.456330 0.402374 0.377003 0.690435
對 0.363200 0.057450 -0.228015 0.634499 -0.161256 0.128850 -0.025918 0.253166 0.549483 0.115137 0.234871 0.132955 0.240662 0.611497 0.133013 0.116778 -0.266352 0.342980 0.212914 0.172627 0.216597 -0.034398 0.460630 -0.117814 0.320915 -0.058777 0.467321 0.018302 0.443307 0.052347 0.206641 0.205334 -0.080309 0.095421 0.076120 -0.314199 -0.447061 -0.343708 0.094882 0.446384 0.288358 -0.205284 -0.166925 -0.400272 0.323827 -0.034131 -0.266660 -0.074046 -0.004855 -0.419651 -0.120932 -0.147186 0.097424 0.088603 0.362513 -0.114911 0.044247 -0.050649 -0.019235 0.343791 -0.032667 0.025239 -0.009902 -0.106520 -0.309962 0.238029 -0.002354 -0.258635 0.189372 0.226973 0.450859 -0.137033 0.193380 -0.060329 -0.389220 -0.257369 0.069209 -0.011401 0.152636 0.138787 -0.154426 -0.210879 0.499094 -0.146742 0.196086 0.424189 -0.244876 0.040722 -0.372900 -0.127532 0.265941 -0.449935 0.563355 0.161703 0.370747 -0.129799 0.052626 0.118314 -0.262552 -0.059087
... 0.164683 -0.318230 0.455357 0.054825 0.116822 -0.342218 0.324021 0.319861 0.175428 0.166079 -0.632680 0.190048 0.245553 -0.212271 -0.087605 -0.596207 -0.716140 0.167680 0.429928 -0.012955 -0.037011 0.133852 0.017816 -0.333121 -0.258229 -0.043476 0.206183 -0.040054 0.434126 -0.102848 0.315153 0.293704 -0.176190 -0.014875 0.372411 0.164646 -0.026076 0.069515 0.239538 -0.151371 0.115558 0.250682 0.069882 -0.022552 0.008349 -0.377720 -0.035778 -0.111612 0.448420 0.309481 0.189857 -0.461544 -0.474621 0.140899 -0.107370 -0.099925 0.057216 -0.218890 0.279952 -0.408112 0.464772 -0.316640 -0.523191 -0.361714 0.349974 0.441432 0.515572 -0.219254 0.290079 0.843953 -0.318885 0.060557 0.346345 0.323289 -0.385890 -0.190827 0.148681 0.192713 -0.116420 0.166485 0.037233 -0.456285 0.469759 0.154569 0.072605 -0.277402 -0.311733 -0.014863 -0.066825 -0.407996 0.041119 0.563389 -0.098652 0.594707 0.555096 -0.092092 0.441489 -0.484707 0.721466 -0.366984
知道 0.097207 -0.293477 -0.168357 0.516101 -0.471871 0.058163 0.187158 0.598279 0.433912 0.275441 0.285807 -0.379206 0.172347 0.081462 -0.681422 0.174714 -0.540438 -0.011501 0.385703 0.108450 0.184248 0.041922 -0.077549 -0.393465 0.530359 -0.165686 0.466251 -0.286161 0.335629 -0.421177 0.252720 0.285650 0.147578 -0.138124 -0.042882 -0.465627 0.477650 0.070665 -0.208977 0.669339 0.395226 0.342162 0.256894 -0.077152 0.323354 -0.378928 0.433818 0.094869 0.277867 0.097889 -0.143834 -0.097212 -0.276548 -0.082644 0.533666 -0.038268 0.129739 0.018386 -0.580822 0.115508 0.185410 0.663506 -0.251112 0.555349 0.055897 0.018341 -0.145579 -0.029532 0.401973 0.015978 -0.041236 -0.082815 0.018750 0.181946 0.080292 -0.159909 -0.011747 -0.020702 0.110333 -0.397695 -0.070310 -0.454665 -0.054176 -0.041812 0.121596 0.308839 -0.020400 -0.335455 0.196382 0.258991 -0.001402 0.027159 0.404067 0.479116 0.374754 -0.498376 0.317667 0.091571 -0.219120 -0.243313
怎麼 -0.886758 -1.134763 -0.042436 0.595688 -0.066889 -0.062958 -0.755042 0.060929 -0.001417 0.229134 0.160033 0.586306 0.803916 -0.123854 -0.168325 0.441221 0.094912 0.222691 0.499409 0.218425 0.547947 0.275696 -0.296095 -0.373141 -0.032771 0.387690 -0.095905 -0.065582 -0.784891 -0.071344 -0.697452 0.341443 -0.344060 -0.017040 0.046572 -0.134473 0.419605 -0.338578 -0.622432 -0.215718 -0.310515 -0.156202 0.973065 -0.492870 0.629203 -0.869327 -0.474794 -0.472287 0.407537 -0.224030 0.274185 -0.191746 0.063713 -0.105851 0.755959 -0.442739 -0.112654 0.169407 0.505684 -0.427794 0.464651 -0.256637 -0.026833 -0.874530 0.573649 0.219903 0.540113 0.756258 0.666958 1.071111 -0.099201 0.321263 0.374350 -0.416359 0.000170 -0.267750 0.186083 -0.486293 0.941515 -0.331062 -0.190837 0.518268 0.501999 0.340728 -0.108649 -0.011960 0.166330 0.386967 1.038662 -0.374479 0.233143 0.291175 0.708814 0.224491 -0.538923 0.352327 -0.486430 -0.605092 -0.114940 -0.001314
去 0.049741 -0.304218 0.359601 -0.200539 0.278515 -0.296754 0.286045 -0.605826 -0.450753 -0.172101 0.237467 -0.488757 -0.013803 0.000495 0.005841 0.540199 -0.404809 0.211331 0.299992 -0.166989 -0.125664 0.157808 0.480939 -0.267679 -0.039274 -0.410813 -0.025415 -0.545061 0.058684 -0.589162 -0.091739 0.610556 0.040071 0.479191 -0.014963 0.031315 0.093872 -0.246720 0.114624 -0.500854 -0.022047 0.677418 0.258271 0.271253 -0.250114 0.196342 0.172532 -0.411134 -0.075065 0.216979 0.245845 0.288607 -0.218006 0.260100 -0.128773 -0.202847 -0.482452 0.273146 -0.038610 -0.001647 0.174331 0.126638 -0.357363 0.240799 0.379540 -0.153341 0.634804 0.564041 -0.294818 0.104973 0.008720 -0.274603 -0.084140 -0.048506 0.396972 -0.282743 0.069649 0.201172 -0.346257 -0.079850 0.173274 -0.796785 0.235175 0.742107 0.113718 0.082668 -0.132768 0.040540 0.053754 -0.209186 -0.361052 0.067835 -0.205705 -0.253325 0.235796 0.200425 0.410263 -0.941569 0.132124 0.142421
可以 -0.034295 -0.438746 0.153476 -0.007408 -0.282896 0.142939 0.128572 0.183834 0.113123 0.097251 0.216053 0.079952 0.219189 0.622838 -0.123376 0.408365 -0.133487 -0.145864 0.204894 0.059281 0.007849 0.198207 -0.080476 0.164002 0.469918 -0.080266 0.091991 -0.312456 0.033581 -0.192476 -0.181095 0.196100 0.172159 0.333197 -0.199509 -0.315730 0.115449 0.185899 0.073689 0.324104 0.321543 0.109018 -0.067883 -0.241534 0.327784 -0.086927 0.184311 0.145170 -0.151562 0.020946 -0.015690 0.113787 -0.113462 0.217415 0.410778 0.039120 0.162514 0.141893 -0.189001 0.095112 -0.073331 0.179257 -0.242841 0.268514 0.018894 -0.192232 0.108097 0.464688 0.003622 0.129678 0.088543 -0.185792 -0.006001 -0.258267 -0.265849 0.156509 -0.068410 0.225734 0.111342 -0.195580 -0.328657 -0.378618 -0.271510 -0.086759 0.117111 0.145311 0.267509 0.152399 -0.128781 0.136111 -0.073029 -0.205593 0.396719 0.072817 0.374378 0.339335 -0.009270 -0.000301 -0.468986 0.088199
人 0.205705 0.105041 -0.102822 0.457588 -0.542795 -0.008298 0.246261 0.134936 0.064436 0.103912 -0.164733 0.326866 0.439131 0.693941 0.303509 0.073438 0.189620 0.031234 -0.098361 0.180910 0.121221 -0.250755 -0.048940 0.450168 0.364400 0.621010 -0.614491 0.204537 -0.181131 -0.214313 0.503898 0.088645 0.550126 0.170726 0.040137 -0.019212 -0.256597 -0.364243 -0.174618 -0.278391 0.226297 -0.299017 0.049920 0.364366 -0.044109 0.247539 -0.407815 0.123667 -0.155127 -0.403802 0.234787 0.480326 0.382446 0.365562 0.341197 -0.336905 0.332620 -0.516945 0.031255 0.063371 -0.372529 -0.215216 0.288389 0.064724 -0.450704 -0.557987 0.356036 0.174796 -0.338289 0.164793 -0.378608 0.246208 0.164854 -0.315569 -0.133454 0.210041 -0.025728 -0.022052 0.013647 0.696473 -0.160888 0.189351 -0.108263 -0.115572 0.189517 0.410153 0.281047 0.285476 -0.151465 0.261702 0.001094 -0.499270 0.187213 0.040683 0.416593 -0.262994 0.049255 0.390808 -0.410547 0.180566
想 -0.259125 -0.405512 0.086213 -0.025855 -0.007713 0.135051 -0.079811 0.071075 0.085910 -0.089339 0.145361 -0.067647 -0.080874 -0.196830 -0.555469 0.326229 -0.082124 0.113206 0.277905 0.062773 0.216785 0.287312 -0.001557 0.012353 0.057589 0.011429 -0.334021 -0.496626 -0.170628 -0.380243 -0.516708 -0.014697 -0.008762 0.111243 -0.197173 0.282102 -0.085280 0.013318 0.219396 0.110038 0.241880 0.144274 0.101495 0.024558 -0.008673 0.102036 -0.076353 -0.365265 0.277612 0.212098 0.155561 -0.013748 -0.108981 0.203473 -0.132459 0.092611 0.017177 0.199963 -0.191969 0.492615 0.242969 0.450401 -0.266091 0.045820 -0.178738 -0.212616 -0.003654 0.105883 0.116558 -0.101561 -0.043723 0.079370 -0.173414 -0.109190 -0.011362 -0.173216 0.193799 0.041151 -0.080838 -0.283365 -0.250074 -0.382175 -0.115816 0.177940 -0.003189 -0.272591 0.394973 0.042481 -0.141892 -0.031011 -0.097277 -0.021175 0.015154 0.206591 0.179619 0.176433 -0.118903 -0.148909 0.245980 -0.214782
如果 0.007579 -0.381793 -0.085548 0.025536 -0.132511 -0.212138 0.194995 -0.011762 -0.413476 -0.105508 0.121098 0.259371 0.438092 0.022082 -0.234810 -0.428026 0.116396 -0.343584 0.339535 -0.016200 0.093951 0.098906 0.066523 -0.296317 0.476378 0.311030 0.040128 -0.078632 -0.454852 -0.440712 0.017434 -0.118746 0.106990 -0.061076 0.066326 0.191099 0.829399 0.255677 0.133209 -0.244327 0.148032 0.138733 0.177715 0.017270 0.099196 0.073621 0.169732 -0.216882 -0.025861 0.378080 0.123083 -0.161926 -0.112952 0.387832 -0.224247 -0.237221 -0.026738 -0.183599 -0.245891 0.147706 0.176120 0.390007 -0.372243 -0.094942 -0.044972 -0.002636 -0.188197 0.164734 0.240907 0.341913 -0.179209 0.141521 0.308477 -0.319554 0.252556 0.239611 0.159971 0.028309 0.300818 -0.237404 -0.064962 -0.115078 0.398069 -0.021513 0.186728 -0.071032 0.026542 0.512465 0.470657 0.001877 -0.011881 0.016668 0.068315 -0.161560 0.264261 -0.014604 0.055031 -0.386458 0.081615 0.379169
和 0.309289 0.191796 -0.305920 -0.184800 -0.287125 -0.287203 0.076533 -0.051420 0.433146 -0.245085 -0.036180 0.110020 0.381492 0.989571 0.285962 -0.034694 0.320349 -0.224302 -0.704539 0.562460 0.189563 0.014103 0.433442 0.419034 0.704405 0.674401 -0.333636 0.262386 0.287542 0.358063 0.829732 0.571890 0.543590 0.173324 0.028668 0.409827 -0.397965 0.004525 0.164492 -0.176530 -0.207582 -0.240030 -0.179040 0.266867 -0.024456 0.419816 -0.237235 0.321156 -0.314789 -0.401688 0.367890 0.544011 0.688105 0.161102 0.572016 -0.360274 0.545467 -0.362237 0.439666 0.410151 0.129592 -0.111915 0.404750 0.055070 -0.686943 -0.119780 -0.018360 0.130333 -0.490183 -0.114307 0.253640 0.328941 0.418662 -0.674101 -0.403363 -0.112555 -0.137470 0.307008 0.053994 0.845047 0.159255 0.159588 0.195564 -0.019437 0.436502 0.588115 -0.176370 0.140003 -0.206698 0.307842 0.163206 -0.680447 0.343229 -0.220843 0.328561 -0.437580 -0.179212 0.590925 -0.463476 0.402605
事 -0.644139 0.081062 -0.011490 0.302407 -0.735191 -0.065337 -0.105657 -0.074008 0.046732 -0.259113 0.107319 0.378713 0.124648 0.041942 -0.274592 -0.022210 0.396355 0.229722 0.228155 0.031004 0.391803 0.200776 0.040112 0.099265 0.088331 -0.015281 0.024388 -0.463111 -0.000908 -0.231691 -0.628547 0.354799 0.391232 -0.307578 0.131600 0.181874 -0.460188 -0.175842 0.146048 0.281459 0.540615 0.210431 0.403257 -0.249801 0.413249 0.352842 -0.256106 0.299561 0.350436 0.089462 0.408078 0.713024 -0.026983 -0.191788 0.165839 -0.337422 -0.128675 -0.758106 -0.133160 -0.003956 0.208083 0.025499 -0.136315 -0.358848 0.143317 -0.224458 0.002082 0.365337 0.320993 -0.267135 -0.206990 0.385363 0.064391 -0.205649 0.418190 -0.252538 0.326427 -0.020786 -0.089285 -0.392299 -0.230270 -0.193407 -0.268351 0.246788 -0.003255 0.002193 0.484564 0.112733 0.221440 0.101648 0.078293 -0.277761 -0.092116 -0.234190 0.305070 -0.569690 -0.258476 0.205954 -0.317813 -0.120056
做 -0.424400 -0.357816 -0.694914 0.547157 -0.578010 0.302482 -0.760100 0.686314 0.441124 -0.275261 0.048449 0.409043 0.058765 0.010742 -0.411874 0.077544 0.064393 0.144037 0.455680 0.014056 0.401355 0.681063 -0.136613 0.329073 0.331172 0.332526 0.012410 -0.334243 0.176841 -0.114761 -0.608985 0.013440 0.035467 -0.245499 0.189051 0.031576 0.379352 0.359822 0.095466 0.434801 0.721268 0.063796 0.531934 -0.130997 0.090847 0.124638 -0.313546 -0.141093 0.328160 0.170486 -0.004448 0.051267 -0.536249 0.095735 0.059821 -0.348825 0.209229 -0.090556 0.015990 0.422109 0.178641 0.403457 -0.029468 -0.151726 -0.324242 0.052648 -0.124494 -0.007694 0.572966 -0.012929 0.026779 0.816047 -0.222313 -0.292979 0.100450 -0.017744 -0.112622 -0.452953 0.046996 -0.567416 -0.010727 0.019384 -0.133869 0.500164 0.023730 -0.396772 0.365586 -0.174488 0.058478 0.003978 0.038795 0.029265 0.004515 0.480020 0.109332 -0.228768 -0.347554 -0.149441 0.004298 -0.385001
讓 -0.280085 0.050152 -0.136775 0.178266 0.151824 -0.617431 -0.105445 -0.067159 -0.196236 -0.131287 0.166809 -0.174338 0.235617 -0.461713 -0.113909 0.067988 0.087646 0.062961 0.250040 0.123971 -0.147838 -0.074967 0.320465 -0.082705 0.308736 0.322428 0.048564 -0.269549 0.174907 -0.140691 -0.429322 -0.124871 -0.005488 0.574938 0.361137 0.287881 0.133480 -0.075298 -0.181588 -0.569992 -0.406102 0.232096 0.117760 0.017748 0.145880 0.122424 0.023912 -0.240837 0.117673 0.037958 0.340403 0.212074 0.501678 0.221553 -0.199359 -0.161844 -0.217964 -0.111966 0.041485 0.127682 0.134846 0.340593 0.151065 0.147739 -0.206178 -0.221606 -0.206555 -0.137477 0.192675 0.136210 0.239152 0.277640 0.548704 -0.447224 0.145860 -0.187640 0.115606 -0.190479 -0.146990 -0.317195 -0.132219 -0.102922 0.386137 0.030897 -0.056278 0.245963 0.054804 -0.052120 -0.213822 -0.324695 -0.273292 0.006556 0.064371 0.020924 0.396410 0.295144 -0.152737 -0.243739 0.024494 0.404522
沒有 -0.002629 -0.397384 0.162642 0.296189 -0.166067 0.246361 -0.071039 -0.012614 0.382331 0.241400 -0.009734 0.145442 0.029020 0.522762 -0.080422 -0.017971 -0.122471 -0.034306 0.157883 0.120542 0.264669 -0.014219 -0.072066 -0.225583 0.111559 0.378571 -0.257307 0.002293 0.049877 0.076749 -0.109675 0.110771 -0.188339 0.164999 0.056246 0.187112 -0.130963 -0.100612 0.040140 -0.248755 0.471951 -0.131851 0.333921 0.257918 -0.068519 0.177262 -0.343763 0.084441 0.154169 0.005847 -0.031370 -0.111972 0.280073 -0.036823 -0.163026 -0.303229 0.253118 0.140212 -0.161017 0.162518 0.238855 0.050884 -0.117725 0.000853 -0.163070 -0.306860 -0.013460 0.108494 0.002484 0.084895 -0.014477 -0.084106 0.010748 -0.069837 -0.340121 -0.178488 0.057352 -0.017424 -0.058464 0.045157 -0.308939 -0.038873 0.112339 -0.159329 -0.083392 -0.155817 0.236510 0.067229 -0.260743 0.003423 -0.025491 -0.166847 0.332534 0.267249 0.214917 0.059468 0.009871 0.336219 0.164178 -0.267664
才 -0.127230 -0.466635 -0.352669 -0.062547 0.409610 -0.489274 -0.590780 -0.191702 -0.558636 0.269572 0.094335 -0.024641 0.264672 -0.297862 0.065579 -0.092570 0.000853 -0.227295 0.373002 0.222665 0.483793 0.184923 -0.074135 0.020316 0.157122 0.152558 -0.071716 -0.015610 -0.180951 0.014912 -0.174514 0.343988 0.430594 -0.215813 -0.363030 0.030570 -0.140200 -0.158650 0.188702 0.015267 -0.261471 -0.348124 0.111908 0.084735 -0.357734 -0.237709 -0.092819 -0.746271 -0.068311 -0.271968 0.441604 0.523597 -0.463031 0.619846 -0.136127 0.108905 0.099607 -0.245618 0.947944 0.077919 -0.128056 -0.208712 0.266480 -0.361338 -0.006115 0.454873 -0.096421 0.212543 0.631778 0.093467 0.223779 0.674267 0.354977 -0.288029 -0.012333 -0.258961 0.006154 -0.106094 0.671058 0.263008 0.249878 0.303037 0.417682 0.528586 0.492332 0.351964 0.100565 0.569728 0.117159 -0.279467 -0.175743 0.052323 0.505322 0.034369 -0.099434 0.020346 -0.492632 -0.454119 -0.112578 0.221471
真的 -0.092376 -0.300593 0.146214 0.012481 -0.015848 0.211739 0.484183 0.495918 0.156150 0.350113 -0.125659 0.139698 0.530111 -0.126959 -0.705444 -0.129323 -0.328152 0.309008 0.348848 0.133365 0.143766 -0.425989 0.003434 -0.354813 0.165360 0.078700 0.179367 -0.274393 -0.427024 -0.570175 0.241170 0.018931 0.244206 -0.083235 -0.324212 0.243586 0.451404 -0.639722 -0.050189 0.483858 -0.088166 -0.100373 -0.235822 -0.121651 -0.043990 -0.220697 0.285807 -0.142245 0.513736 -0.201145 0.265807 0.017183 -0.034810 -0.165840 -0.253174 -0.270833 -0.333855 -0.288215 -0.569140 0.409818 0.298682 0.774890 -0.064762 0.213209 0.152506 0.216501 0.114511 -0.132784 0.122267 0.669810 -0.158974 -0.096086 0.087180 0.108048 0.078469 -0.294138 0.586288 -0.141635 -0.190217 0.231761 -0.346236 0.088557 0.735167 -0.192393 -0.012055 0.397839 0.018940 0.036134 0.269188 -0.467378 0.244052 -0.141845 0.393879 0.045000 0.018212 -0.256524 -0.203649 -0.187700 0.224219 -0.415648
不是 0.031884 -0.280851 0.133583 0.399608 -0.336468 0.079960 0.430203 -0.193669 0.370904 0.323397 -0.260550 0.181906 0.200016 0.466766 -0.333661 0.129300 -0.233587 0.361633 -0.037909 0.088352 0.190447 -0.149613 0.167105 -0.770009 0.086667 0.210912 -0.268943 -0.072563 -0.157699 -0.230709 -0.007584 0.413676 0.062286 0.078169 -0.178956 -0.014669 -0.238138 -0.387930 -0.054908 -0.212342 0.729794 -0.000941 0.355943 0.017573 -0.059386 0.385104 -0.196603 -0.188425 0.123991 -0.176293 -0.144001 -0.132258 0.260953 -0.171701 -0.212435 -0.295611 0.090131 0.137765 -0.503797 0.023054 0.111161 0.362581 -0.057891 0.200901 0.021797 -0.117605 0.397958 0.184598 0.078452 0.435024 -0.227739 -0.448612 0.009531 0.044135 0.028669 -0.094099 0.211113 -0.059002 0.103959 0.168903 -0.372877 0.050780 0.418142 -0.085694 -0.198215 0.004074 0.103766 -0.002406 0.305464 0.221577 0.029574 -0.209490 0.109120 0.102445 0.057488 -0.320084 -0.145654 0.181271 0.172172 -0.252831
你們 -0.153866 -0.090729 0.496921 -0.274821 -0.083543 -0.064305 -0.213643 -0.085936 -0.110656 0.120175 -0.349895 0.083704 0.348874 0.119201 -0.558581 0.013794 -0.269255 -0.088712 0.266843 0.143049 0.172482 0.139084 -0.038196 0.338113 0.033183 -0.206396 -0.170612 -0.105465 -0.062624 0.274026 -0.135659 0.364582 0.118655 0.130698 -0.330037 -0.160602 -0.278824 0.013496 0.299599 -0.145533 0.269499 0.221478 0.222331 0.158812 -0.062069 -0.322107 -0.176661 -0.006849 0.339511 0.434390 0.123195 0.362111 -0.510631 0.152709 0.017638 -0.049321 0.162321 -0.383640 -0.075183 0.226488 -0.021857 -0.012706 -0.271438 -0.178492 0.176102 0.070357 0.241322 0.425645 0.175271 -0.104380 -0.313861 0.213571 -0.014724 -0.054430 0.059100 0.084006 0.030793 0.174579 -0.068949 0.043843 0.219942 -0.144152 -0.147250 -0.098067 -0.059797 0.019609 0.365710 0.356607 -0.211648 -0.090750 0.042611 0.218311 -0.006221 0.032824 0.240042 -0.157448 -0.164646 -0.203045 0.242356 -0.355938
一定 -0.322446 0.182570 -0.389504 -0.081979 0.322218 -0.231551 -0.309216 0.254987 -0.298862 0.155290 0.004198 -0.454104 0.716953 -0.416085 -0.371613 0.138154 0.039192 0.300389 -0.139209 0.282484 0.375422 0.043992 0.733447 0.047203 0.546054 0.069343 0.239710 -0.302771 -0.425775 -0.213486 0.081251 0.530239 0.500442 -0.020630 -0.866407 0.081171 0.083583 -0.455865 -0.138630 0.376704 -0.488386 -0.193044 -0.281203 0.303540 0.203368 0.375980 0.377450 -0.965565 0.022084 -0.576529 0.331258 0.625082 -0.320032 0.069492 -0.020808 0.215648 -0.196870 -0.290105 0.291975 0.377987 -0.297082 0.821258 -0.220757 -0.008564 -0.280515 0.401242 0.316337 0.151983 0.199329 -0.039399 -0.083808 0.343354 0.449746 -0.521521 0.482016 -0.095114 0.486264 -0.367432 0.322693 0.433225 0.303108 0.079015 0.670780 0.757492 0.372586 0.788554 -0.416214 0.043922 0.468298 -0.365484 0.132449 -0.013053 0.178479 -0.246604 -0.304264 -0.708776 -0.513411 -0.684664 0.039493 0.304188
來 0.080299 -0.828112 0.012168 0.189774 -0.212734 -0.259255 0.303627 -0.267224 0.158270 -0.065034 0.051756 -0.212048 -0.343010 0.602007 0.503447 0.576819 -0.202135 0.347261 0.156749 -0.155724 0.037570 0.388786 0.022406 -0.162282 -0.090540 -0.299926 -0.314440 -0.508616 0.405417 -0.286804 0.005549 0.647039 0.089344 0.040423 0.472766 -0.035318 -0.415915 -0.483357 0.030039 -0.243558 0.572552 0.131965 0.202659 0.367776 -0.168330 0.016200 -0.038202 -0.085719 -0.018316 0.035748 0.217393 -0.061363 -0.148366 0.062267 0.417637 -0.234914 -0.115345 0.507566 0.563210 -0.309571 0.464041 -0.512429 -0.232042 0.149833 0.181031 -0.173616 1.070716 0.532713 -0.164639 0.536023 0.047173 -0.125906 -0.227410 0.129063 -0.188348 -0.445651 -0.069959 0.197307 -0.142296 0.163998 0.382139 -0.847711 -0.060696 0.372983 0.269079 -0.348290 0.193665 0.021535 -0.045105 0.440440 0.026493 -0.238661 -0.145671 0.438190 0.230865 0.260909 0.317839 -0.533129 -0.242082 -0.644597
自己 -0.033277 0.162614 0.008455 0.125892 -0.183365 -0.196765 -0.050733 0.278794 -0.096018 -0.145434 -0.105941 -0.142418 0.377421 -0.169914 -0.292854 -0.027468 0.022282 -0.049097 -0.011349 0.324715 0.394075 0.046651 0.423037 0.163055 0.394508 0.160948 0.132921 0.062114 0.010644 0.366868 -0.112468 0.275489 0.014007 0.266976 -0.229034 0.027066 -0.439027 0.060871 0.046251 -0.094708 -0.098626 0.127404 0.070738 -0.094011 0.099082 0.140944 -0.057984 -0.017470 -0.037290 0.089862 0.000108 0.288862 -0.178443 0.217231 0.114951 -0.028096 0.037511 -0.497512 0.089629 0.251052 -0.192643 0.239149 -0.082960 -0.088609 -0.110237 -0.075489 -0.134044 0.041611 0.063040 -0.313650 -0.152150 0.279140 0.297539 -0.515684 0.131251 -0.066438 0.166597 -0.079633 0.186334 -0.029740 0.080876 -0.073176 -0.014771 0.164036 0.016560 0.253486 0.136477 0.068866 -0.171362 0.169311 0.031146 0.028704 -0.020578 0.024537 0.371655 -0.510993 -0.279657 0.029900 0.208903 -0.001092
年 0.742921 -0.174898 0.005402 -0.682168 0.094319 -0.428719 0.399956 0.543864 0.533094 0.090473 -0.208854 0.580645 -0.099643 1.239077 0.655298 -0.233898 -0.026685 -0.395928 -0.852301 0.541981 0.039918 -0.213239 -0.063147 0.145865 0.743195 0.505586 -0.187079 0.790400 0.878941 1.023831 1.017566 1.470230 0.588762 0.387931 0.692093 -0.052477 -0.708538 0.413976 0.588989 -0.271314 0.439707 -0.339006 0.147466 0.308575 -0.433989 0.708022 0.210210 1.135258 -0.351929 -0.272066 0.343065 0.406312 0.850294 -0.027393 0.596518 -0.643065 0.941132 -0.082240 0.472333 -0.295339 0.267966 -0.075531 0.402419 -0.259170 -0.738773 -0.107942 -0.236515 -0.156588 -1.040930 0.183987 0.294756 -0.051836 0.565239 -0.439402 -0.338359 -0.610159 0.358664 0.743892 -0.192032 1.249821 -0.232905 -0.637809 0.228994 0.472631 0.284735 0.200867 0.186639 -0.352368 -0.617774 0.649444 -0.187411 -0.770191 0.189218 -0.459548 0.162883 -0.108268 -0.063263 0.786957 -0.301759 -0.036043
一個 0.112143 -0.029342 -0.064044 0.419251 -0.168428 -0.007879 0.142415 0.145456 0.198519 0.154353 -0.109385 0.345990 0.226654 0.241937 0.170007 0.042084 0.133312 0.080717 -0.172239 0.221928 0.335716 -0.104603 0.207782 0.204925 0.522280 0.507948 -0.404721 0.156536 0.031236 0.061226 0.607991 0.192778 0.436182 0.319282 -0.177108 0.276209 -0.271610 -0.119600 -0.231815 -0.151272 -0.308737 -0.314769 -0.026770 0.505906 -0.254559 -0.016046 -0.307506 -0.019147 -0.362007 -0.330387 0.121354 0.159989 0.470291 0.271691 0.152564 -0.102192 0.459788 -0.294272 -0.004217 0.099514 -0.156971 0.040588 0.440688 0.341815 -0.402060 -0.271875 0.136315 -0.092592 0.098773 0.078362 0.040924 0.228480 0.249193 -0.528130 -0.196111 0.074602 -0.155951 0.018430 0.177159 0.510143 -0.196554 0.415571 0.383896 -0.072998 0.139500 0.449920 0.199017 0.180084 -0.152629 0.454969 -0.138638 -0.256616 0.231549 0.006653 0.636331 -0.242756 -0.007070 0.459561 -0.099243 0.274156
不要 0.027123 -0.652802 -0.076485 -0.211588 0.202621 0.122250 0.194939 0.304883 -0.261513 -0.312840 -0.144731 0.358708 0.418350 0.204346 -0.329971 -0.329151 -0.391443 0.134463 0.159720 -0.118606 -0.093959 0.204497 0.059421 -0.542903 0.269154 0.056099 0.115504 -0.078435 -0.011417 -0.054016 -0.118460 0.405526 -0.383827 0.319454 0.012305 -0.081037 0.416507 -0.039297 0.229125 -0.315775 0.240187 0.374409 0.492642 -0.095131 0.158827 0.174710 0.189214 0.096124 0.310313 -0.066855 -0.008758 -0.467634 -0.000049 0.097211 -0.171518 -0.565392 -0.500324 0.650552 0.291685 -0.041490 0.245794 0.213573 -0.673887 -0.437687 0.277718 0.007602 -0.064512 -0.075365 -0.410331 0.500044 0.051042 -0.384477 0.282305 -0.440810 -0.303344 -0.455799 0.452155 0.155269 -0.300885 -0.157891 -0.527359 -0.702878 -0.031566 0.631784 -0.158607 -0.526362 -0.236385 0.249106 0.067246 -0.189625 0.431605 -0.114372 0.018880 -0.169688 -0.086684 -0.045431 -0.096420 -0.670154 0.314946 -0.022790
這個 -0.002339 -0.199125 0.308738 0.232757 0.074785 -0.006778 0.171759 0.111725 0.272034 0.248278 -0.089712 0.148966 0.213724 -0.059684 -0.102896 -0.058166 -0.034830 0.102747 0.062958 0.113243 0.314085 -0.167235 0.133740 -0.008835 0.251656 0.247616 -0.089581 0.054231 0.088282 0.011453 0.354713 0.193377 0.154765 0.222521 -0.142929 0.229960 -0.229452 -0.058294 -0.070847 -0.000808 -0.261726 -0.148940 -0.031985 0.220737 -0.293407 -0.072203 -0.153747 -0.027263 -0.035518 -0.064917 0.107802 0.032149 0.303532 0.112509 0.097550 0.111018 0.298259 -0.213945 -0.239337 0.041542 0.092341 0.177216 0.141842 0.235031 -0.239365 -0.068808 -0.032728 -0.100561 0.192248 0.044333 -0.054057 0.076502 0.272239 -0.154467 -0.073899 -0.122734 -0.055105 0.214127 0.198830 0.309056 -0.151660 0.091422 0.330049 -0.148496 0.034118 0.403830 0.117411 0.103583 -0.174124 0.275060 -0.262154 -0.088924 0.279600 0.131399 0.503217 0.036772 0.131618 0.233755 0.141396 -0.060466
看 -0.089699 -0.175834 -0.085196 -0.067249 0.188275 0.013281 -0.073310 0.232459 0.083524 -0.207720 -0.076960 0.106156 0.261750 0.029715 -0.103859 0.056251 -0.363062 0.187728 0.360744 0.027499 -0.189257 0.209024 0.128080 0.005573 0.230856 0.010090 0.183589 -0.380831 0.345831 -0.312485 -0.039281 0.021478 -0.160930 0.154027 0.070590 0.135844 0.395163 0.115778 0.139952 0.195595 0.104069 0.336504 -0.126258 0.121849 0.104123 0.189566 0.057115 -0.418555 0.004038 -0.135908 0.207967 -0.243510 -0.251151 0.212635 -0.275421 -0.140813 0.100901 0.359294 0.039257 0.092677 0.123178 0.476632 -0.447243 0.045020 -0.161025 0.139385 0.392500 -0.178753 0.140549 0.381525 0.062518 0.001656 -0.008686 -0.130928 -0.417142 0.140611 0.181715 -0.127317 -0.056396 -0.111279 -0.129840 -0.126200 0.264064 0.388838 -0.054322 -0.294207 -0.088640 -0.123829 -0.298984 -0.364622 -0.034257 0.110000 0.258733 0.251697 0.166788 0.104278 0.186071 -0.454464 0.387513 0.137476
被 0.219822 0.078527 -0.266979 -0.003566 0.131793 -0.249116 -0.070949 -0.071379 0.277950 0.249205 0.196936 0.263958 0.019096 0.678877 0.359196 -0.129799 0.225110 -0.218962 -0.131020 0.305660 -0.079293 -0.198193 0.032106 0.079330 0.474756 0.546050 0.006717 0.347925 0.513788 0.370521 0.336931 0.554162 0.353988 0.153664 0.447289 -0.041570 0.003380 0.259668 0.181350 -0.120728 0.056285 -0.321849 0.276339 0.277993 -0.317031 0.477736 -0.040923 0.360746 -0.211824 -0.273270 0.264644 0.610991 0.747365 -0.123061 0.214847 -0.225085 0.569423 -0.188649 -0.098147 -0.072794 0.110189 0.322092 0.535564 0.119281 -0.662273 -0.032141 -0.448766 -0.136979 -0.057584 0.054265 0.255183 0.133803 0.525176 -0.126024 -0.028435 -0.302858 -0.072572 0.114830 0.149021 0.402218 -0.127900 -0.028119 0.318691 -0.049131 0.001566 0.523734 0.219165 -0.118512 -0.265973 0.108210 -0.289301 -0.617074 0.501922 -0.172727 0.078918 0.228731 0.037481 0.437181 -0.353579 0.206538
把 0.082608 -0.053148 -0.406766 0.154008 0.127307 -0.090064 -0.290349 -0.173717 -0.139621 -0.192526 0.182292 -0.220615 0.080685 0.076693 -0.012817 0.170910 0.027942 0.044218 0.195315 0.036326 -0.053258 0.210008 0.522455 -0.115469 0.216531 0.270641 0.195824 -0.213279 0.538428 -0.141296 -0.512763 0.302675 -0.024666 0.375241 0.004068 0.090993 0.315214 0.141450 0.096174 -0.341338 0.047682 0.280526 0.395447 0.069689 -0.416149 0.682980 -0.232672 -0.297206 -0.103995 -0.091910 0.073464 0.362935 0.098334 0.061381 -0.284446 -0.315397 -0.026505 0.027095 -0.305428 0.330274 0.094274 0.585817 -0.025140 0.403073 -0.109864 0.052878 -0.297813 -0.033916 0.161565 -0.004650 0.262211 0.142158 0.085079 -0.453717 0.075669 -0.098126 -0.299348 -0.071726 -0.068678 -0.237496 -0.117592 -0.050607 0.078726 0.528711 -0.122912 0.291437 -0.209048 -0.021018 -0.160174 -0.216774 -0.452054 -0.019804 0.085897 0.116177 0.119125 0.127997 0.036555 -0.338890 0.018091 0.314606
再 -0.323601 -0.178237 0.388380 -0.657057 0.110062 -0.366079 0.418416 0.192571 -0.609812 -0.214871 -0.231593 -0.446794 0.406140 -0.461866 -0.143515 -0.041895 -0.238386 -0.274181 -0.007622 0.143363 -0.435458 0.216015 0.042720 0.397338 -0.017878 -0.139212 0.200973 -0.203220 0.687654 -0.156054 -0.652378 0.322439 0.286949 0.774428 0.358650 0.063401 -0.036473 0.032543 0.072961 -0.295208 -0.363173 0.541136 -0.058367 -0.013891 -0.112294 -0.109966 0.541643 0.314153 0.456761 0.299800 0.544088 0.509437 -0.162565 -0.151833 0.161195 -0.348377 -0.354959 -0.279049 0.041561 -0.332142 0.126304 -0.044567 -0.228544 -0.003969 0.540515 -0.184204 -0.403625 -0.149305 0.161718 0.308344 -0.201927 0.236897 0.566444 -0.365845 -0.027668 -0.403210 0.258410 0.428029 -0.761497 -0.269783 -0.225370 -1.034953 -0.700786 0.308752 0.059268 0.132505 -0.131913 -0.163281 -0.291321 -0.682626 -0.304994 0.315957 -0.251409 -0.154210 0.667577 0.166630 -0.019980 -0.576513 0.043191 0.247164
已經 -0.032897 -0.553824 0.446038 -0.495727 -0.075510 0.126253 0.632823 0.197552 0.057118 -0.041970 -0.027077 0.296685 0.197252 0.563722 0.266502 -0.496822 0.251420 -0.268938 -0.081481 0.315795 0.221644 -0.063006 0.016294 -0.124255 0.359121 0.396332 0.432505 0.035388 0.087414 0.121435 0.276025 0.387318 0.120981 -0.146737 0.089204 0.633784 0.414979 -0.306683 0.448198 0.184168 -0.110346 -0.046759 -0.158050 0.024335 -0.759693 0.408730 0.306959 0.472461 0.016797 -0.267452 0.073208 0.249573 0.104027 -0.215752 -0.508828 -0.514033 -0.038827 -0.297674 -0.278013 0.116622 0.308112 0.313145 -0.124546 -0.183407 0.104899 0.041587 -0.213852 -0.009777 0.105832 0.589556 0.216243 -0.041277 -0.193612 -0.112476 0.057908 -0.264300 0.648241 0.342207 -0.200597 0.687998 -0.372515 0.119261 0.574408 0.084425 0.201826 0.217917 -0.174594 0.137869 0.086660 -0.362434 -0.209017 -0.425131 0.455085 -0.382021 0.075768 -0.036439 -0.182143 0.091363 -0.056594 0.105094
找 -0.389769 -0.157730 0.201299 -0.191228 0.182032 -0.661661 0.260076 0.265628 0.118655 -0.229044 -0.129309 0.230277 0.209513 -0.352099 -0.412189 0.467806 -0.352402 0.250202 0.221624 0.264342 -0.081889 0.859949 0.333166 -0.285679 0.354486 -0.309534 -0.150156 -0.589626 0.250755 0.022850 -0.280070 0.393462 -0.038632 0.672089 0.240653 0.151519 0.270175 0.614469 -0.039108 -0.134744 -0.102343 0.646344 -0.047412 0.228255 0.140848 0.207863 0.106342 -0.638932 -0.137836 0.280140 0.076683 -0.112833 -0.154936 0.296909 -0.435567 0.230022 0.262984 0.326510 0.274830 -0.240046 0.076986 0.531441 -0.153026 0.113788 -0.325923 -0.138411 0.674936 0.073351 0.317441 0.356823 0.193791 0.207566 -0.073503 -0.246502 0.295805 0.440591 -0.127951 -0.276192 0.172767 -0.259092 0.258174 -0.149676 0.486047 0.456728 -0.519146 -0.458971 0.379248 -0.462240 0.033382 0.404221 -0.411994 0.288462 -0.464581 0.421109 0.383863 0.235695 -0.087965 -0.613736 0.492196 0.205480
但是 0.091936 -0.171254 0.068275 0.075647 -0.159662 -0.067148 0.064304 -0.157879 0.113514 0.228040 0.009710 -0.047348 0.247345 0.285857 -0.140745 -0.196884 -0.034791 -0.251036 0.100868 0.148674 0.094401 -0.235756 -0.004251 -0.202893 0.251564 0.397780 0.076736 0.046370 0.034546 -0.173113 0.142087 0.090122 0.108083 -0.015315 -0.039508 0.081450 0.250186 -0.026898 0.069115 -0.148723 0.237969 0.022160 0.141492 0.101638 -0.110239 0.126365 -0.022921 -0.000353 0.100507 0.063525 0.130489 0.121429 0.164958 0.075460 -0.040291 -0.275189 0.108407 -0.144455 -0.367426 0.159109 0.225931 0.292047 -0.075173 0.163867 -0.066274 0.022328 -0.134662 0.143904 0.121596 0.205523 -0.044359 -0.002681 0.237450 -0.045898 -0.095741 -0.064166 0.176029 0.087368 0.106785 0.104340 -0.096622 -0.014852 0.333150 -0.212484 0.171147 0.281162 -0.026650 0.125629 0.062461 -0.167254 -0.125042 -0.090156 0.378172 0.038119 0.021268 -0.055577 -0.023254 0.142950 0.035679 0.005601
" 0.334907 -0.307418 -0.406615 0.256559 -0.224282 -1.272428 0.876512 1.327972 -0.715110 0.178455 0.929450 -0.156860 0.237208 -0.185107 0.339202 0.582182 -0.455552 -0.885054 -0.114893 0.560922 0.341482 -0.981513 -0.260849 -0.617322 0.745073 0.560294 0.345190 0.392168 0.664678 0.584689 0.416781 0.448101 0.368481 -0.098257 0.987261 0.339432 -0.722441 -0.012907 -0.417430 -0.410287 -0.049831 -0.070829 -0.254268 -0.099458 0.528115 0.217100 0.485879 0.636677 -0.565297 -0.234274 0.506675 0.529000 0.390344 0.360492 0.135011 -0.333047 0.314232 -0.441972 0.851291 -0.274840 0.134317 -0.227097 0.317781 0.276788 -0.669206 -0.990099 -0.103956 -0.339616 -0.683519 -0.573087 0.455263 0.149292 0.924287 -0.542750 -0.596872 -0.200026 1.277695 -0.392153 0.417580 0.417836 0.255501 -0.347230 0.238393 -0.022428 0.105306 0.058512 0.623298 -1.087983 -0.756121 0.890838 -0.332408 -0.093470 0.789373 0.574762 0.636579 -1.096023 -0.312090 0.383947 -0.086779 -0.207005
又 0.091731 -0.492686 -0.135730 0.016569 -0.209464 0.083659 0.186444 0.370496 0.195431 0.038725 -0.268590 0.525346 0.286189 0.125572 0.187204 -0.284915 0.167632 -0.141569 0.023004 -0.145413 0.375365 0.178890 -0.193650 0.313630 0.268021 0.227359 -0.077463 0.159296 0.019949 -0.132143 0.307606 0.148430 0.451579 -0.154680 0.215357 0.226540 0.283286 0.051387 0.096384 0.132796 0.218282 -0.089822 -0.047538 0.092310 -0.639036 0.172035 -0.071406 0.121979 0.025106 0.023626 0.186579 0.193576 -0.144728 0.101007 0.097656 -0.174745 0.416997 -0.396466 0.158466 -0.064049 0.199895 0.069164 0.214803 -0.124987 -0.132562 -0.005006 -0.078967 0.051324 0.221727 0.413594 -0.108475 0.548090 -0.075519 -0.194455 0.168192 -0.039078 -0.030228 0.196137 -0.041390 0.528304 -0.013205 0.020797 0.295022 0.302001 0.257772 0.163435 -0.054059 0.006207 0.181659 0.146348 -0.497537 -0.024537 -0.000683 -0.097386 0.361869 -0.012214 -0.081749 0.008784 -0.148754 -0.165919
他們 0.029790 -0.050141 0.183163 -0.182529 -0.021865 -0.104283 -0.228509 -0.058990 -0.223873 0.145105 -0.105767 0.112580 0.184967 0.232611 -0.204769 0.026250 -0.032641 -0.223953 0.049207 0.234909 0.186841 -0.018938 -0.014918 0.377812 0.216325 0.027167 -0.278157 0.150564 -0.198310 0.284382 0.100919 0.427645 0.339623 0.055221 -0.287048 -0.133151 -0.276148 0.115404 0.333215 -0.133108 0.160755 -0.101134 0.084949 0.223820 -0.050449 -0.064583 -0.073431 -0.036487 0.001481 0.231575 0.190484 0.498067 -0.141428 0.193183 0.165419 0.049370 0.319974 -0.390530 0.048502 0.222791 -0.157549 0.101836 -0.055408 -0.089951 -0.207715 -0.123064 -0.062253 0.315852 -0.052014 -0.243201 -0.251578 0.202631 0.193562 -0.211752 0.042453 0.054057 0.047203 0.117342 0.067223 0.248060 0.093343 -0.245925 -0.213983 -0.077048 0.153766 0.245438 0.455691 0.312784 -0.255906 0.066267 -0.054511 -0.122128 0.170532 -0.204585 0.246550 -0.124169 -0.219899 0.069935 -0.104718 -0.021162
啊 0.240557 -0.406758 -0.349688 0.220781 0.127530 0.168615 -0.414144 0.424147 0.340214 -0.119058 -0.583881 0.016037 0.119953 0.026596 -0.168412 -0.243726 -0.439459 0.365184 0.252638 0.090268 0.165402 0.147321 -0.134916 0.221833 -0.046723 0.075495 -0.210240 0.003273 0.061380 -0.141345 0.439442 0.205234 -0.024420 -0.157410 -0.086372 -0.020359 -0.008943 -0.131129 0.251993 0.128021 0.214647 0.080604 0.153194 0.125259 -0.142337 -0.477242 -0.160533 -0.314542 0.272342 -0.024773 0.127465 -0.454316 -0.472384 0.486450 0.282458 -0.162011 0.196225 0.106682 0.409423 0.305236 0.098876 -0.007653 -0.263849 -0.239480 -0.054408 0.333980 0.289314 -0.161046 0.065984 0.361434 -0.218036 0.362323 0.034301 -0.071256 -0.376506 -0.323836 -0.091833 0.147386 0.012727 0.101276 0.001222 -0.250549 -0.004109 0.491159 0.466609 -0.217929 -0.181731 0.284770 -0.230530 -0.194845 0.339910 0.278319 0.049442 0.442352 0.195982 -0.167518 0.203342 -0.314241 0.371214 -0.218549
到 0.280870 -0.272135 0.066731 -0.096975 0.113129 -0.023310 -0.116342 -0.167421 0.166077 0.134812 0.150914 0.212362 -0.092897 0.701274 0.453533 0.049998 0.070573 -0.287585 -0.142352 0.204178 0.021950 -0.177534 -0.123820 0.166742 0.348415 0.333072 0.096609 0.213256 0.490141 0.341037 0.238873 0.649250 0.214874 0.171370 0.174047 -0.193435 0.010204 0.089792 0.276881 -0.185430 0.213757 -0.073000 0.263858 0.238678 -0.306847 0.390723 0.030629 0.353945 -0.160341 -0.191051 0.180814 0.478605 0.310289 0.038223 0.198024 -0.240095 0.435372 0.005323 0.015289 -0.146098 0.021565 0.112451 0.196490 0.084598 -0.351863 -0.049731 -0.057659 0.284164 -0.297106 0.088985 0.259248 0.002032 0.135735 -0.054915 -0.126146 -0.255688 -0.068902 0.387038 -0.028366 0.467358 -0.109509 -0.154014 -0.039862 0.240298 0.056578 0.417266 0.172342 0.004585 -0.309062 0.206775 -0.235642 -0.337243 0.479632 -0.086307 -0.070077 0.264290 -0.014607 0.186903 -0.443349 -0.027521
就是 -0.162178 -0.315557 -0.248351 0.419903 -0.586075 -0.204426 0.190968 0.050862 -0.114344 0.298237 -0.066253 0.357518 0.264772 0.411537 0.340699 0.009676 -0.071937 0.168021 0.027557 0.028016 0.310674 -0.070138 0.109765 -0.597475 0.344363 0.287825 0.106117 0.019053 0.100967 -0.175201 0.004603 0.275748 0.318217 -0.045775 -0.064698 0.010220 -0.075805 -0.447869 -0.133819 -0.150556 0.509254 -0.219936 0.139974 -0.075927 0.026303 0.403487 -0.023759 -0.204277 -0.185049 -0.542544 -0.050583 0.005154 0.149258 0.133156 -0.146069 -0.583393 0.015494 -0.079376 0.227595 -0.206026 -0.206737 -0.089280 -0.001542 0.024355 0.196722 -0.096769 0.362632 0.171165 0.295515 0.599181 0.072610 -0.091959 0.122641 -0.396252 -0.150457 0.047572 0.403809 -0.225180 0.232553 0.334089 -0.403110 0.264903 0.465952 0.122144 0.281244 0.112804 -0.129413 0.189755 0.294801 -0.008658 -0.042751 -0.292683 0.392028 -0.111379 0.160554 -0.354572 -0.386680 0.112286 -0.272162 0.242466
幫 -0.269423 -0.088684 -0.021120 0.088247 0.136249 -0.409382 0.011938 0.021989 0.189856 -0.162699 0.142072 -0.250676 0.079044 -0.387524 -0.275540 0.283852 -0.209325 0.286572 0.132281 0.129679 0.037167 0.337289 0.425456 -0.387585 0.278929 0.019349 0.118683 -0.578138 0.205767 -0.448112 -0.180190 0.232698 -0.116022 0.297755 -0.000347 0.274740 0.280122 0.091252 -0.103494 -0.088778 -0.155937 0.470668 0.128083 0.114308 0.220631 0.358854 0.062894 -0.577930 0.070980 -0.015619 0.128608 -0.108457 0.096528 0.172646 -0.160929 -0.002938 -0.011592 0.298297 -0.024454 0.032735 0.163370 0.587091 -0.293779 0.189602 -0.147525 0.027035 0.464440 0.037047 0.122010 0.202421 0.152555 0.020459 0.065813 -0.211823 0.196666 -0.023372 0.025513 -0.165735 0.088191 -0.238992 0.037659 -0.080115 0.583337 0.608877 -0.067428 -0.034407 -0.223166 -0.330253 0.127630 0.021318 -0.326365 0.190417 -0.085756 0.282778 0.071378 0.017163 0.193087 -0.445350 0.366915 0.278078
得 0.337159 -0.533104 0.170067 0.056554 0.026194 0.770871 -0.115757 -0.141863 0.405050 -0.132608 -0.183532 0.387282 0.562222 0.147633 -0.492935 -0.016761 0.226997 0.066069 0.163595 0.031567 0.431214 -0.132211 0.274611 0.238692 -0.018477 0.416094 0.031478 -0.029090 -0.141414 -0.158013 -0.472137 0.056860 -0.129756 0.291500 -0.854652 -0.203312 -0.124655 -0.150034 0.355896 0.100307 -0.014264 -0.045949 0.252242 -0.788574 -0.254448 0.077823 -0.425159 -0.086392 0.427160 -0.002252 -0.030778 0.055210 -0.047410 0.250571 0.469095 -0.080816 -0.102588 -0.190225 -0.696096 0.777317 0.210927 0.516235 0.042542 -0.198967 0.095767 0.466457 -0.419906 0.312555 0.080811 0.382730 0.006384 -0.077719 0.035695 -0.461955 -0.189218 -0.383284 -0.093406 0.639126 0.212480 -0.056691 -0.620192 -0.030653 -0.260605 0.072055 0.007568 0.531550 -0.030816 0.620021 0.145341 -0.224784 0.261689 -0.171070 0.342531 -0.037406 -0.256394 0.364192 -0.381478 -0.005779 0.017883 -0.480966
這樣 0.095729 -0.023203 0.335029 0.584399 0.393090 -0.006142 -0.412287 0.144988 0.033199 0.289402 -0.051816 -0.072052 0.154052 -0.540916 -0.155909 0.047556 -0.357652 0.404454 0.454313 0.064953 0.093816 -0.279736 0.236064 0.005401 -0.293491 -0.223467 0.359913 0.106363 0.504671 -0.099978 -0.008143 0.522173 -0.122227 0.425963 0.197909 -0.553954 -0.235224 -0.150588 -0.082668 0.033659 -0.166032 0.083499 0.420872 0.090199 0.022289 -0.581706 -0.284875 -0.201445 0.549951 0.092689 0.161427 -0.007568 -0.015742 -0.181235 0.602818 0.007606 0.032461 -0.269826 -0.345557 -0.262215 0.132992 0.126308 -0.109275 0.004531 -0.012136 0.278329 -0.138802 -0.233388 0.503134 0.042984 -0.355652 0.105232 0.618664 0.221075 0.137663 -0.577738 -0.318616 0.062549 -0.004535 -0.276540 0.190857 -0.581297 -0.045726 0.091172 -0.167787 0.646158 0.044136 0.032368 -0.398287 -0.230658 -0.356081 0.316325 0.283916 0.360493 0.348635 0.143979 0.445300 -0.382625 0.234627 -0.327229
醫院 -0.022830 0.321668 -0.107418 -0.807539 -0.043323 -0.301031 0.197934 0.213720 -0.122251 -0.178924 -0.408786 0.524981 -0.140875 0.112368 -0.252372 0.338483 0.065928 0.277370 -0.246324 0.663370 -0.060739 0.622001 0.625267 -0.013185 0.266478 -0.149871 -0.469895 -0.046355 0.370023 0.135443 0.093167 1.074913 0.727186 0.532721 -0.050392 -0.128529 -0.151737 0.628467 0.533866 0.199429 0.159517 0.049543 -0.131584 -0.096856 -0.364466 0.513732 -0.119818 -0.183651 -0.267608 0.058768 0.094082 0.416955 0.215143 0.144940 0.126496 -0.289669 0.643263 -0.448176 -0.356440 0.360360 -0.190363 0.820443 0.340081 0.119186 -0.326090 0.341924 0.177069 -0.037976 0.319766 0.192461 0.044766 -0.028891 0.135628 -0.405416 0.660360 0.378383 -0.191134 0.044170 0.257933 0.347367 0.195989 0.135536 0.604844 0.186372 0.027532 0.072908 0.442831 0.352309 0.195094 0.231468 -0.165393 -0.358434 -0.420021 -0.484026 0.077975 0.290989 -0.141573 -0.052953 0.273672 0.548762
等 0.123605 0.101338 -0.215323 -0.521410 0.112943 -0.103931 0.410284 -0.112344 0.435555 -0.579329 -0.018927 -0.052087 0.930078 0.894466 -0.258401 0.254880 -0.009427 0.013344 -0.750860 0.417421 -0.257146 0.359800 0.816378 0.385981 0.683499 0.481499 -0.585725 0.035949 0.399493 0.355472 0.532180 0.498704 0.136466 0.725072 -0.045094 0.457612 -0.268801 0.356576 -0.065793 -0.317776 -0.646486 0.109343 -0.149191 0.214621 0.197489 0.425921 -0.283806 0.081494 -0.165725 -0.292276 0.465602 0.231105 0.784746 -0.070773 0.553016 -0.144313 0.219227 0.224152 0.654955 0.346284 0.414548 -0.193465 0.179030 -0.053980 -0.644906 -0.178259 0.191859 -0.000434 -0.775907 0.205956 0.299488 0.119286 0.672774 -0.742904 -0.731129 0.042513 -0.310649 0.445099 -0.061925 0.627209 0.068613 -0.212031 0.159453 0.154067 0.012054 0.199900 -0.599412 0.011396 0.217411 0.008723 0.577592 -0.538965 -0.001045 -0.061564 0.335933 -0.083126 0.005345 -0.035376 -0.006603 0.437270
不會 -0.146657 -0.275233 -0.146436 0.179144 0.166240 -0.130646 -0.336300 0.136262 -0.230071 0.082154 0.518956 -0.003594 0.279968 0.271655 -0.385505 0.209173 -0.215942 -0.033096 0.343814 0.287470 0.138312 0.165023 0.063263 -0.301286 0.613773 -0.104955 0.322510 -0.182397 0.139515 0.295606 -0.425655 0.461628 -0.178779 0.268892 -0.224147 -0.573213 0.033884 -0.106455 0.022894 0.146772 0.049904 -0.037044 0.470378 0.039526 0.500530 -0.151504 0.102280 -0.045828 0.134869 -0.307406 -0.006269 0.089276 0.150749 0.094044 0.145574 -0.158052 -0.226130 0.472535 0.173295 0.104121 -0.252086 0.294920 -0.302323 -0.183601 -0.130489 -0.027871 -0.205063 -0.013543 0.078541 -0.033676 0.470738 -0.234479 0.384511 -0.306472 -0.247160 -0.361625 0.272651 -0.033526 0.273016 -0.353415 -0.300964 -0.346064 0.003581 0.110599 -0.197721 0.100115 0.205257 0.310004 -0.153328 0.073172 0.437891 -0.460206 0.597717 0.004775 -0.121881 0.105158 -0.334486 -0.234004 -0.325785 0.130223
因為 0.199539 -0.052373 -0.363304 0.286437 -0.173420 -0.457803 -0.034320 0.241250 0.191474 0.298602 0.106773 -0.007908 -0.143378 0.097566 0.174586 -0.069133 0.189938 0.023727 0.062958 0.333175 0.332347 -0.221519 -0.099133 -0.103487 0.428346 0.473912 -0.111188 0.117807 -0.059317 -0.217122 0.439528 -0.019944 0.332532 -0.072266 0.199167 0.242012 0.085762 -0.239700 -0.016110 -0.104705 0.021762 -0.349162 -0.091484 0.166046 -0.167261 0.027172 -0.037617 -0.118205 -0.083683 -0.137886 0.085900 0.031739 0.444829 0.332977 0.074182 -0.200691 0.370347 -0.239658 -0.096418 0.231175 -0.108806 0.239404 0.283338 0.272233 -0.427751 -0.150810 -0.078525 -0.119050 0.169742 0.242616 0.145526 0.230958 0.313500 -0.217451 0.103539 -0.188735 0.105878 -0.070775 0.228152 0.279810 -0.084560 0.183081 0.696575 -0.185188 0.380821 0.395000 0.168796 0.099165 -0.219477 0.234569 -0.257305 -0.308169 0.302322 0.075259 0.306706 -0.058232 0.033560 0.324901 -0.168226 0.188746
告訴 -0.104723 -0.067099 -0.023660 0.278742 -0.064991 -0.347022 0.016352 0.355893 0.392582 -0.025136 0.054669 -0.252954 0.066773 -0.374577 -0.330885 -0.180269 -0.312381 0.284304 0.341435 0.047335 0.028775 0.220948 0.153130 -0.417436 0.359240 -0.019097 0.386900 -0.426076 0.322555 -0.511732 0.179095 0.044885 -0.217929 0.179540 0.295074 0.137817 0.565266 0.041981 -0.142176 0.025848 0.069526 0.429996 0.148254 0.226126 0.188044 0.137330 0.197336 -0.362338 0.327159 0.100952 0.023241 -0.316729 -0.006934 0.122268 -0.142772 -0.087128 0.045513 0.245484 -0.211091 -0.060482 0.179640 0.558501 -0.413911 0.247644 -0.189965 0.028990 0.229086 -0.225198 0.246383 0.217302 -0.000200 0.135161 0.181488 0.001548 0.252599 -0.126468 -0.010352 -0.172178 -0.071526 -0.368074 0.121498 -0.228880 0.580564 0.423954 -0.070482 -0.021305 -0.229080 -0.358232 -0.050607 0.129953 -0.339877 0.185281 -0.083719 0.439963 0.265343 -0.127852 0.391714 -0.440559 0.350396 0.048351
所以 0.075902 -0.232738 -0.012184 0.174991 -0.059109 -0.172094 -0.152983 -0.103151 -0.090251 0.019374 0.333359 -0.049871 -0.165378 -0.061287 0.095591 0.510698 -0.175432 -0.040633 -0.078140 0.308647 0.241309 0.162685 0.211437 0.135961 0.388712 -0.230612 0.167843 -0.276521 0.075574 -0.019285 -0.129465 0.317863 0.063211 0.078587 -0.304416 -0.231091 -0.105246 -0.138396 0.113991 0.050891 0.107149 0.058067 0.018330 0.005025 0.145451 0.083669 0.149992 -0.506981 -0.081929 -0.059568 0.144047 0.079345 -0.135069 0.220970 0.374161 0.117912 0.242019 0.217402 -0.070714 0.163521 -0.101322 0.559739 -0.226936 0.084447 -0.250209 0.048722 0.508989 0.238775 0.081102 0.242825 0.216884 -0.026865 -0.213517 -0.166830 -0.015902 0.068425 0.238244 0.064576 0.251013 0.129857 0.085472 -0.169703 0.242251 0.221611 0.125871 0.283912 0.203881 -0.026327 -0.095865 0.226210 -0.210114 0.044178 0.297007 0.155666 -0.156641 0.101696 -0.299382 -0.295322 -0.190929 -0.006582
呢 -0.787496 -0.963598 -0.383009 0.478054 -0.122254 0.436047 -0.695861 0.317645 0.221067 0.098931 -0.327256 0.264381 0.394178 -0.124118 -0.155434 0.234172 -0.085626 0.307297 0.636981 -0.317887 0.095662 0.276391 -0.727085 0.606124 0.085841 0.102909 -0.200422 -0.468734 0.077674 -0.435220 -0.444526 0.058220 0.410449 -0.223519 -0.098553 -0.312256 0.363643 0.170196 -0.205485 0.644179 0.478841 0.205286 0.462994 0.081103 -0.105172 -0.569827 -0.091432 -0.246162 0.143809 -0.145253 0.218514 0.087574 -0.665023 0.417130 0.471308 0.041193 0.387403 0.119396 0.340819 -0.058452 -0.054145 0.172722 0.102406 0.028996 0.068827 -0.027756 0.228848 0.412702 0.783597 0.431541 -0.330876 0.909896 0.021320 -0.069693 -0.189130 -0.083666 -0.167529 0.073856 0.331934 -0.523556 -0.018435 0.057678 -0.283384 0.635339 0.529960 -0.244569 0.124948 0.157839 0.223539 -0.148715 -0.222144 0.370679 0.425061 0.598249 0.107373 0.573736 -0.081071 -0.421912 -0.149606 -0.253612
沒 -0.214533 -0.611108 0.423207 0.298637 -0.029570 0.387977 -0.185714 -0.296074 0.186099 0.176167 -0.086761 0.167022 0.159912 0.327928 -0.250797 -0.009904 -0.111286 -0.019611 0.241889 0.186903 0.256818 -0.066649 -0.201658 -0.241863 -0.086456 0.311606 -0.172334 -0.068129 0.040132 -0.126455 -0.442321 0.163056 -0.285150 0.285373 -0.141746 0.026513 -0.002812 -0.084158 0.101425 -0.172918 0.351937 0.104051 0.506039 0.110040 -0.363991 0.025123 -0.456281 0.060557 0.368880 0.140260 -0.106884 -0.063072 0.102709 -0.003982 -0.081273 -0.312079 0.233333 0.132810 -0.584871 0.074270 0.114826 0.167051 -0.177811 -0.007808 0.034075 -0.140234 -0.125929 0.222985 0.352619 0.150532 -0.085611 -0.029052 -0.076025 0.026019 -0.144155 -0.173351 -0.169763 0.350427 0.195460 -0.148052 -0.307516 0.095578 -0.136744 -0.061982 -0.200550 0.013496 0.215008 0.460388 -0.076453 0.066518 -0.179395 0.076778 0.384045 0.441203 0.034872 0.431354 0.120378 0.016123 0.271884 -0.286380
今天 -0.233098 -0.291394 -0.031116 -0.014995 0.059998 -0.266118 -0.114945 0.204575 -0.015051 0.136020 -0.135385 0.270752 0.115255 -0.063730 -0.083394 0.064767 -0.185460 0.142398 0.290638 0.163252 0.137680 0.277374 -0.138594 0.111045 0.129093 0.010180 -0.216910 -0.298624 -0.079386 -0.093530 -0.152317 0.240739 0.268504 -0.119373 -0.098730 0.073632 -0.049846 -0.043908 0.089341 0.147950 0.112707 -0.158267 0.009473 0.112040 -0.066836 -0.068433 -0.047633 -0.422351 0.082975 0.023581 0.268088 0.180401 -0.314678 0.255495 -0.033335 0.111310 0.321094 -0.096158 0.194207 0.029409 -0.022525 0.181467 -0.105362 -0.151261 -0.155889 0.159024 0.586918 0.111709 0.296814 0.425719 -0.094952 0.295256 -0.035939 -0.051083 0.015025 0.124427 0.149349 -0.053273 0.286008 0.157758 0.093847 0.139582 0.366945 0.239106 0.056396 -0.118159 0.289881 0.095536 0.052472 0.041378 -0.121285 0.071162 0.010972 0.327895 0.047804 0.143389 -0.171454 -0.305595 0.100268 -0.134548
這裡 -0.359218 -0.155349 0.509958 -0.185256 0.090902 -0.496396 0.048444 0.579248 0.161361 0.086912 -0.143273 0.160660 0.101101 -0.306986 -0.265388 0.432153 -0.568815 -0.066561 -0.310396 0.290734 -0.010115 0.193922 -0.365013 0.306336 -0.011573 -0.035268 -0.555209 -0.261313 0.169301 -0.046262 0.012186 0.684276 0.688476 -0.072876 0.002587 0.116164 -0.521686 0.540943 0.045792 0.439430 -0.132102 0.064676 -0.028279 0.199792 0.295245 -0.460546 -0.035493 0.041149 0.122284 0.407494 0.616279 0.040099 -0.031643 0.110497 0.682350 0.239917 0.739643 -0.191595 0.029515 -0.366676 0.274152 0.006886 -0.221532 -0.262055 -0.084153 0.003360 0.802395 0.121626 -0.237685 0.466316 -0.248310 0.245444 0.165906 0.130964 -0.185642 0.197346 0.208738 0.481478 0.372102 0.370514 0.070324 -0.160814 0.193467 0.357682 0.375735 -0.294193 0.134455 -0.465464 0.179950 0.279355 -0.454693 0.631781 -0.202170 0.539961 -0.037606 0.237703 0.227025 0.158967 0.431519 0.164420
與 0.310044 0.151175 -0.427623 -0.102241 -0.418057 -0.367736 0.114725 0.195941 0.622500 -0.064978 -0.149468 0.209492 0.282004 1.102313 0.269429 -0.024376 0.295867 -0.068007 -0.734134 0.508626 0.217884 0.092830 0.251156 0.280003 0.731667 0.629245 -0.442254 0.361217 0.378559 0.400164 0.881262 0.709088 0.712636 0.237449 0.271050 0.248072 -0.452160 0.035245 0.101512 -0.191962 0.083985 -0.305079 -0.046024 0.335879 -0.061454 0.417143 -0.229685 0.486857 -0.274895 -0.379224 0.340698 0.468511 0.847155 0.076056 0.678391 -0.492292 0.629593 -0.346388 0.498169 0.198865 0.123280 -0.219592 0.551452 0.076758 -0.651713 -0.201889 -0.081772 0.060593 -0.477636 0.018575 0.233575 0.358794 0.568463 -0.626825 -0.278244 -0.251650 -0.197866 0.272424 -0.009357 0.856191 0.067029 -0.040896 0.275032 -0.008111 0.461869 0.484178 -0.111991 0.008363 -0.190076 0.463296 0.127446 -0.779966 0.173697 -0.276668 0.447246 -0.416740 -0.140332 0.763881 -0.544611 0.294613
可能 -0.104621 -0.406176 -0.401999 0.318979 -0.408362 0.159326 -0.119015 0.732564 0.088352 0.506611 0.162462 0.246706 0.555192 0.388370 -0.245896 0.338966 -0.159824 0.090037 0.472070 0.028409 0.160705 -0.058618 -0.434792 0.360050 0.677990 -0.045327 0.132420 -0.207919 -0.054275 -0.453583 0.187865 0.116987 0.764503 -0.136252 -0.201703 -0.600837 0.496828 -0.087761 -0.418947 0.927180 0.180084 -0.249714 -0.091783 -0.091137 0.280800 -0.719697 0.221254 0.191123 -0.042026 -0.273231 0.147679 0.321270 -0.252949 0.188634 0.775045 -0.170054 0.281644 -0.269342 -0.246614 0.095142 -0.229819 0.357204 0.177372 0.431944 0.097619 -0.027336 0.087463 0.294559 0.505527 0.422011 -0.015032 0.267684 0.290801 -0.182809 0.018155 0.100741 -0.011158 -0.023578 0.309816 -0.155109 -0.084897 0.160552 0.249051 -0.134688 0.470620 0.536007 0.211605 0.206119 0.238930 0.059418 -0.041475 -0.234978 0.629038 0.106448 0.285955 0.053810 0.013709 0.017886 -0.725154 0.055261
多 0.274039 -0.593260 -0.516404 -0.119865 -0.183178 0.659620 -0.334504 0.387653 0.150399 -0.227929 0.054857 0.626329 0.679338 0.443525 -0.245466 -0.018714 0.229638 -0.265258 -0.245590 -0.119834 0.460716 0.544981 0.330896 0.579853 0.339690 0.655874 -0.248493 0.027170 -0.007787 0.067189 -0.697841 0.033353 0.038065 0.585778 -0.326982 -0.007878 -0.048014 0.074663 -0.031996 -0.080405 0.371359 -0.296533 0.178744 -0.368608 -0.130709 0.193713 -0.748777 0.327420 0.158055 0.057116 0.205486 -0.166297 0.072836 0.000798 0.371850 -0.671855 -0.014280 0.050339 0.170828 0.528907 0.368576 -0.219276 0.195350 -0.363991 0.053358 0.230272 -0.640563 -0.035059 -0.060758 0.259277 0.331002 0.428044 0.351845 -0.932469 -0.650030 -0.391462 -0.188022 0.175430 -0.338233 0.039957 -0.390633 -0.045064 0.194783 0.248100 0.020542 -0.043245 -0.294486 0.379517 -0.026970 -0.233678 0.186411 -0.213837 0.007062 -0.145833 -0.061568 0.133676 -0.617614 -0.129055 -0.094934 -0.493109
有志 -0.131635 -0.249921 0.116583 -0.252490 -0.029558 -0.082359 -0.126669 -0.087947 -0.012238 -0.064264 -0.344409 -0.104694 0.168818 0.173232 -0.321610 -0.037223 -0.156864 0.185429 0.070872 0.305515 0.085965 0.019431 -0.101415 0.126956 -0.017357 -0.054639 -0.429991 -0.027586 -0.231395 -0.153187 0.040661 0.341055 0.177621 -0.030523 -0.125936 -0.017308 -0.030152 -0.132869 0.258659 -0.153434 0.347701 0.120509 0.090855 0.186640 -0.163670 -0.113288 -0.038786 -0.187582 0.275770 0.294978 0.202338 0.047251 -0.059970 0.076312 0.171753 -0.224983 0.140520 -0.091801 -0.200345 0.240814 0.029461 0.152071 -0.269444 -0.137458 -0.025312 -0.084436 0.188876 0.204368 0.083293 0.143368 -0.418323 0.081086 0.030001 -0.021774 0.218730 -0.012579 0.110050 0.188615 -0.007431 0.065228 0.062649 -0.296498 -0.112807 -0.048567 0.264400 -0.053946 0.175222 0.337882 -0.039884 -0.082012 0.079029 -0.123028 -0.034149 -0.102776 0.087025 0.027444 0.078832 -0.112341 0.156957 0.034455
但 0.450266 0.021574 -0.388398 0.003038 -0.168284 -0.222052 -0.114419 0.070260 0.485640 0.239768 -0.183071 0.046399 -0.033515 0.593896 0.205470 -0.198108 0.221294 -0.133150 -0.139069 0.194413 0.274677 -0.073967 -0.128458 0.224329 0.495728 0.475015 -0.336037 0.406943 0.145717 0.096111 0.735913 0.238402 0.466690 -0.016676 0.143356 0.012402 0.063420 0.053913 0.141033 -0.125236 0.294873 -0.218744 -0.075511 0.435471 -0.501426 0.223671 -0.183858 0.105692 -0.169997 -0.099052 0.095217 0.155289 0.500993 0.343308 0.359021 -0.271349 0.656635 -0.165756 0.041620 0.314679 0.001006 0.233884 0.335592 0.275957 -0.487439 -0.116921 -0.238824 0.012868 -0.130790 0.101254 0.048562 0.257407 0.226706 -0.272537 -0.073170 -0.222619 -0.153599 0.124877 0.056274 0.577047 0.044832 -0.045971 0.453255 -0.216475 0.435270 0.402688 0.123811 0.102448 -0.415238 0.308643 -0.297653 -0.495035 0.273802 -0.179402 0.282597 -0.043176 0.063510 0.657977 -0.231128 0.070749
吃 -0.033768 -0.100080 0.330923 0.002025 0.042550 0.232599 -0.128444 0.060915 0.039962 -0.331567 -0.087229 0.337688 0.204155 0.038917 -0.076066 0.074368 -0.420972 -0.015901 0.061557 0.014348 -0.122289 0.240803 0.425650 0.152881 -0.019904 -0.087293 0.233572 -0.398008 0.268607 -0.216865 0.017621 0.283618 -0.270370 0.352279 0.141853 0.235735 0.024272 0.114924 0.280313 -0.090027 0.111466 0.417122 0.168786 0.129179 0.438247 0.171662 -0.165552 -0.200248 0.264619 0.078890 0.340599 -0.101968 -0.322363 -0.030171 -0.105577 -0.105875 0.153458 0.022149 0.179063 -0.063529 0.493881 0.146519 -0.582846 -0.297438 -0.147081 0.238385 0.531198 0.065410 -0.182222 -0.001700 -0.204969 0.069341 -0.059236 -0.109792 -0.468173 0.135586 -0.035522 -0.054477 -0.388031 0.030724 0.091406 -0.230152 -0.102717 0.585846 -0.346345 -0.188629 -0.049534 -0.126088 -0.228999 -0.233008 0.036587 0.487748 0.037657 0.280729 0.243202 -0.286070 0.137953 -0.600750 0.519730 -0.212125
應該 0.197747 0.117728 0.131063 0.352080 0.052254 -0.255229 -0.030861 0.278976 -0.162186 0.112115 0.218702 -0.049231 -0.060812 -0.159747 0.121343 0.229450 -0.238238 0.228514 0.252826 0.378038 0.258333 -0.144996 0.365815 0.204658 0.411747 -0.315249 0.405883 -0.135352 -0.029451 -0.095799 0.136642 0.118079 0.094601 0.156983 -0.117255 -0.133182 -0.384952 -0.302115 0.296756 0.394197 -0.103695 -0.107592 -0.344919 -0.281359 0.142431 -0.208532 0.232330 -0.383147 -0.074936 -0.127335 0.009826 0.025954 -0.372481 0.417966 0.085149 0.219954 0.074613 -0.304180 -0.077382 0.249040 -0.422793 0.352810 -0.171639 -0.059624 -0.316105 0.113159 0.264621 -0.163491 0.266588 0.144987 0.187151 0.084359 0.051925 -0.031061 0.160461 -0.021188 0.343166 0.023993 0.266916 0.190175 -0.047585 -0.230501 0.454696 0.123199 0.260464 0.519745 0.162023 0.223906 -0.330632 -0.062146 -0.103282 0.022913 0.316307 0.091398 0.450622 -0.014752 -0.042320 -0.336342 -0.092213 0.173710
中 0.643301 0.188376 -0.298604 -0.174037 -0.156001 -0.143458 -0.290145 0.278822 0.493744 0.167820 -0.029483 0.748954 -0.253211 0.601790 0.540181 -0.090660 0.295472 -0.536094 -0.688506 0.418108 0.332782 -0.252399 0.000157 0.506474 0.834624 0.489543 -0.448773 0.467247 0.453772 0.626291 0.730442 0.955247 0.932306 0.044909 0.204016 0.100565 -0.694951 0.345333 0.122012 0.349431 -0.109957 -0.686492 0.360478 0.392899 0.174957 -0.076177 0.029606 0.819746 -0.321274 -0.545053 0.572361 0.466345 0.753875 -0.057233 1.179338 -0.594499 1.214191 -0.319584 0.232220 0.202845 0.334918 0.407142 0.722273 0.056762 -0.619130 0.058601 -0.173603 -0.278905 -0.277015 0.161310 0.285602 0.370492 0.309385 -0.803579 -0.440710 -0.384127 0.346169 0.225600 0.088749 0.646114 -0.259264 0.325095 0.506561 0.429517 0.410928 0.657049 0.321566 -0.190345 -0.173125 0.222550 -0.503558 -0.313659 0.537002 -0.348258 -0.031237 -0.381159 -0.358560 1.225567 -0.387625 0.440948
「 0.880421 -0.139398 -0.887885 -0.008138 0.320549 -0.017219 -0.180879 0.010519 0.683563 0.381247 -0.268905 0.545891 0.648409 1.403863 0.087722 0.090483 0.243716 -0.383740 -0.048835 -0.044039 0.439296 0.537558 0.376740 1.044941 0.672350 0.242365 -1.262842 1.135764 -0.010657 1.696480 0.581785 0.757933 0.608381 0.624771 0.279852 -0.638340 -1.110748 0.938818 0.131347 -0.025874 0.031717 -0.207536 0.617760 -0.294752 -1.020597 0.074430 -0.733911 0.100906 -0.713379 -0.129739 -0.142068 0.998114 0.615434 0.638622 1.526666 0.562160 0.868999 -0.327006 0.799916 0.571903 0.005269 -0.041007 1.147420 -0.042144 -1.026658 -0.402613 -0.957262 0.349605 -0.569387 0.094712 -0.140837 0.667110 0.761349 -0.558147 -0.048048 -0.850358 -0.252850 0.653242 0.796820 0.929649 -0.023400 -1.042556 -0.058903 -0.283819 0.062802 0.823785 0.763222 0.046549 -0.031292 0.287790 -0.506245 -0.880777 0.198591 -0.214226 0.579903 -0.030123 -0.779977 0.400236 -0.081161 -0.226158
媽媽 -0.087457 -0.128799 0.197667 0.158565 -0.036251 -0.088152 0.060242 -0.073203 -0.192841 -0.044149 -0.050565 -0.037430 0.310545 -0.055379 -0.207417 -0.074890 -0.079349 0.059269 0.052525 0.246593 0.019370 -0.179247 0.149794 0.014651 0.115419 0.149026 -0.233694 -0.130300 -0.406643 -0.379665 0.108547 0.099231 0.046786 -0.027582 -0.175509 0.142698 -0.015110 -0.176740 0.084586 -0.145852 0.047810 0.015948 0.013202 0.122936 0.217621 0.030507 0.017144 -0.379040 0.165761 0.019607 0.247070 0.061328 -0.023454 0.150462 0.131787 0.006986 0.011943 -0.089430 -0.197516 0.201558 0.060048 0.325478 -0.427664 -0.098144 -0.238250 -0.183422 0.204965 0.125804 -0.051365 0.048411 -0.494463 0.025990 0.193349 -0.093557 0.058294 0.092084 0.304470 -0.008110 0.143419 0.075478 0.038258 -0.194221 -0.090886 -0.032795 0.157869 0.137163 0.151472 0.263740 0.046823 -0.063418 -0.012520 -0.015713 0.160869 0.115118 0.091376 -0.202459 0.029420 -0.246084 0.122924 0.144159
」 1.131835 -0.304627 -0.459920 0.583030 -0.234407 0.355351 0.057232 -0.149147 0.337360 0.095318 -0.053748 0.849771 1.244115 1.377736 0.304719 0.215968 0.061385 -0.341697 -0.142059 0.115356 0.464080 0.318789 0.580745 0.812469 0.850277 0.439649 -0.480647 1.574688 0.118266 1.538932 0.710308 0.843034 0.533925 0.419432 0.327310 -0.372202 -1.198801 0.608350 0.614224 -0.884223 0.275710 -1.138771 0.621689 0.005865 -0.101942 -0.040807 -0.453265 0.095901 -0.516083 0.500356 0.015925 0.885016 0.157175 0.302122 0.988477 0.315616 1.245045 -0.929162 1.381980 0.710946 0.559438 -0.038949 1.075000 -0.851781 -1.371022 -0.677022 -0.995430 0.045253 -0.372007 0.006247 0.136634 1.081003 0.544582 -1.240020 -0.316232 -0.237062 -0.784805 -0.250057 0.206115 0.707488 0.619889 -1.039955 -0.563786 -0.127708 0.040685 0.749062 0.514462 -0.027993 -0.586685 0.803783 0.164750 -0.899723 0.352798 -0.344882 0.981927 0.201813 -0.747737 0.691177 -0.999805 -0.629143
好好 -0.244354 -0.129826 -0.160534 0.342449 -0.017553 -0.389460 -0.416385 -0.326966 -0.074497 -0.281236 0.296514 -0.805292 0.173777 -0.221789 -0.243442 0.295234 -0.024651 0.059902 0.085342 0.194019 0.211213 0.192492 0.622913 -0.274080 0.448348 -0.097102 0.100842 -0.418627 -0.181245 -0.267639 -0.050259 0.337392 -0.105724 0.165909 -0.418159 0.022003 0.135611 -0.098106 0.027032 -0.274265 -0.141514 0.424613 0.263477 0.304724 0.364239 0.348041 0.164697 -0.910134 -0.043292 -0.090245 -0.000769 0.041767 0.096789 0.336435 0.257776 0.209247 -0.145932 0.295508 0.244049 0.359981 -0.063605 0.594571 -0.561215 0.119846 -0.265283 -0.105651 0.141904 0.298270 -0.040303 -0.301222 -0.033331 0.110346 0.052598 -0.547195 0.221598 -0.031533 -0.003796 -0.238420 0.368543 -0.173969 0.199576 -0.407955 -0.118297 0.549831 0.357371 0.394821 -0.262915 0.040372 0.126414 0.042506 -0.224983 0.014910 0.226395 0.121620 -0.015135 -0.242277 -0.021136 -0.350349 0.024783 0.614334
吧 0.282731 -0.217754 0.272230 -0.154868 0.412704 -0.296410 -0.312064 -0.391332 0.010973 -0.354890 -0.557841 -0.450204 0.005558 0.294606 0.037448 -0.462071 -0.523364 0.168916 0.434528 0.582119 -0.120683 0.095904 0.377943 -0.198193 -0.056370 -0.136630 0.126621 0.037657 0.155239 0.261444 0.466231 0.498781 -0.543773 0.138183 -0.129786 0.101487 -0.176559 -0.274583 0.791042 -0.229731 -0.215853 0.319540 0.011307 0.022746 -0.238110 -0.315681 0.001801 -0.579858 0.122569 -0.149323 0.053835 -0.407477 -0.392441 0.679024 -0.189508 -0.132451 -0.205777 0.213969 0.650214 0.395581 -0.044744 -0.080827 -0.597080 -0.425903 0.036687 0.533102 0.192193 -0.158958 0.016625 0.303755 0.052390 -0.091206 -0.019187 -0.036879 -0.529590 -0.341568 0.042068 0.220069 0.197765 0.276418 0.005705 -0.407784 -0.087990 0.268115 0.469075 -0.019031 -0.264579 0.823105 -0.541875 -0.699607 0.469427 -0.075807 0.389031 0.187959 0.240519 0.162133 0.143394 -0.400082 0.377879 0.457906
媽 -0.136769 -0.340003 0.199089 -0.135061 0.014915 0.080958 -0.182820 0.019474 0.544735 -0.136481 -0.812405 -0.439137 0.384420 0.049846 -0.377155 -0.538085 -0.281788 0.403000 0.140153 0.171437 -0.147365 0.127654 -0.083753 0.155878 -0.218060 -0.082889 -0.012095 -0.240249 0.176511 -0.227843 0.034751 0.187493 -0.342247 0.077479 0.112928 -0.018359 0.151826 -0.388939 -0.023966 -0.226292 0.296456 0.431787 0.155909 0.333900 -0.036116 -0.288813 -0.012067 -0.159250 0.737737 0.081955 0.304396 -0.381107 -0.145495 -0.109919 0.315191 -0.295623 -0.040234 0.216524 -0.063167 0.030758 0.390334 0.094072 -0.668898 -0.259143 0.350235 0.167753 0.346704 0.051844 0.205247 0.553910 -0.695163 0.146218 0.080457 0.092992 -0.097135 -0.370290 0.037441 0.232292 -0.391391 -0.164275 0.052287 -0.487485 -0.085468 0.108714 0.192729 -0.194317 -0.384797 0.147387 -0.190986 -0.459963 0.217780 0.193906 -0.174787 0.288115 0.140135 0.008729 0.234482 -0.303583 0.391917 -0.193107
陳 0.106148 -0.058455 -0.457278 -0.544950 0.168956 -0.327321 -0.078271 -0.544465 -0.085473 -0.339469 -0.191363 0.131753 -0.248654 0.716664 0.164217 0.306528 0.151784 0.429845 0.041619 0.319896 0.054601 0.274939 0.218539 0.406468 0.280072 -0.030377 -0.905741 -0.013239 0.023770 -0.047057 0.034962 0.759722 0.856658 0.001079 0.006586 0.066283 -0.196491 0.005592 0.701922 -0.236786 0.408961 0.022008 0.128577 0.145738 -0.733256 0.498482 -0.221320 -0.065074 -0.386459 0.328134 0.397943 0.621999 0.410718 0.162420 0.153700 -0.377771 0.349948 -0.425999 -0.118074 0.514154 -0.123547 0.382798 0.392680 0.123494 -0.292375 -0.190475 0.195146 0.308515 -0.160117 0.198963 -0.013956 0.066318 -0.123147 -0.220004 0.643331 -0.067746 -0.345039 0.427024 -0.163828 0.490612 0.016544 -0.363404 0.049515 0.121261 0.500135 0.116359 0.243987 0.543821 -0.135497 0.009537 0.032225 -0.903613 -0.165661 -0.742777 0.409566 0.507490 0.243370 0.255918 -0.443572 0.434753
錢 -0.004813 0.089504 0.068105 -0.059790 -0.051710 0.027342 -0.045395 -0.035490 -0.374331 -0.314169 0.017173 0.249956 -0.009846 -0.145686 0.063609 0.080561 0.038239 0.031573 0.086474 0.323580 0.140672 -0.156720 0.215500 0.318162 0.297987 0.006364 0.094386 -0.024760 0.116288 -0.082204 -0.200110 0.262472 0.110947 0.174124 0.056365 -0.011624 -0.031209 0.035484 0.291317 -0.090771 0.013726 0.186130 0.206784 -0.052667 -0.056283 0.433356 -0.157825 0.060038 0.020261 0.114585 0.315703 0.372827 0.027482 0.055401 0.014090 -0.314769 0.215840 -0.526781 -0.255003 0.093093 -0.126402 0.591876 -0.149363 -0.098090 -0.096213 -0.134556 0.175397 0.089343 -0.110050 0.013287 -0.299690 0.103551 0.070444 -0.215732 0.242740 0.060206 0.024567 0.086678 -0.117274 0.028036 -0.112666 0.118753 -0.016713 0.319377 -0.130045 0.195165 0.312573 0.328400 -0.185059 0.042735 -0.120531 -0.047639 0.078800 -0.195977 0.282867 -0.035685 0.122068 -0.056352 0.100048 0.155259
上 0.159041 0.083148 -0.095022 -0.272477 -0.198062 -0.303212 -0.105407 0.213162 0.272515 0.088043 -0.008363 0.353201 0.065058 0.715207 0.234522 0.173486 0.144658 -0.307107 -0.587080 0.513497 0.142933 -0.091387 -0.110595 0.420919 0.517447 0.405725 -0.505379 0.317925 0.155853 0.417139 0.555437 0.695218 0.762284 -0.002547 0.037907 0.076298 -0.491756 0.252477 0.226891 0.078004 0.075872 -0.388297 -0.030331 0.300501 0.068192 0.135832 -0.116678 0.327075 -0.254464 -0.162802 0.407064 0.464581 0.607461 0.127409 0.674182 -0.224285 0.919739 -0.321564 0.175094 0.157351 0.060097 0.098125 0.317432 -0.100469 -0.591716 -0.162273 0.091614 0.145496 -0.424996 0.080247 0.066057 0.226475 0.269660 -0.436647 -0.254524 0.046965 0.138762 0.287781 0.269044 0.740916 -0.029138 0.125499 0.216377 0.027782 0.452002 0.283796 0.285996 -0.040118 -0.176548 0.357106 -0.206000 -0.377291 0.313529 -0.238606 -0.004663 -0.103160 -0.185165 0.796312 -0.283313 0.409839
這 0.063871 -0.234997 0.173250 0.540230 -0.057219 -0.199140 -0.101532 0.281772 0.266444 0.284981 -0.189352 0.280434 -0.156773 0.101039 0.323096 -0.103983 -0.050972 0.164534 0.244284 0.062591 0.439975 -0.304963 -0.087469 -0.053855 0.005221 0.290454 -0.264124 0.165626 0.071500 0.086857 0.262321 0.238249 0.101964 -0.087511 0.260329 0.259018 -0.483160 -0.240903 0.053308 -0.061461 0.107797 -0.425657 -0.072337 0.382178 -0.194627 -0.062457 -0.488311 0.072172 0.052297 0.000796 0.134689 -0.190218 0.331435 0.077692 0.173186 -0.097880 0.411703 -0.224391 0.066355 -0.003032 0.133978 -0.090241 -0.083666 0.051263 -0.315393 -0.229356 0.233306 -0.089458 0.033665 0.077374 -0.214518 -0.004411 0.160956 -0.037912 -0.254157 -0.221382 0.035473 0.004276 0.070252 0.445530 0.048602 -0.048239 0.282556 -0.299036 0.209047 0.099048 0.368863 0.179746 -0.613117 0.336519 -0.341754 -0.179108 0.296303 0.365290 0.539350 -0.018369 0.274815 0.384943 0.093600 -0.239692
回來 -0.176730 -0.352755 0.440544 0.019714 0.124222 0.055944 0.140690 -0.040227 -0.208258 -0.151138 0.187444 -0.062971 0.355665 0.011628 -0.184365 0.241820 -0.312313 0.015082 0.254164 0.029671 -0.200580 0.132316 0.237106 0.191997 0.262367 -0.317368 0.256920 -0.414281 0.137817 -0.125538 -0.086733 0.332401 -0.129878 0.284957 0.013240 -0.171317 0.172375 -0.054473 0.060804 0.055075 -0.172608 0.396635 0.247953 0.108110 0.188413 -0.132075 0.183162 -0.033679 0.137210 0.052126 0.225567 0.203062 -0.281054 -0.005796 0.263715 0.097831 -0.135963 0.138088 -0.110984 -0.040729 0.149690 0.345882 -0.496046 -0.012861 0.018799 -0.066666 0.348940 0.214717 -0.061809 0.044103 -0.146922 -0.020346 0.082404 0.029630 -0.042384 -0.062956 0.074065 0.171204 -0.129335 -0.139621 0.149607 -0.416789 -0.249544 0.238161 -0.184455 0.156061 0.078436 0.107748 -0.092630 -0.037405 -0.083813 0.117937 0.213986 0.231586 0.210819 0.138810 0.218316 -0.724943 -0.044153 -0.080033
陳家 -0.068799 -0.082225 -0.062595 -0.262749 -0.053922 -0.106266 -0.042783 -0.018960 -0.124851 -0.053665 -0.190070 0.122974 -0.007666 0.251534 -0.181855 0.110371 0.007947 0.167846 0.021338 0.356061 0.083880 0.060199 0.028051 0.144712 0.234449 0.025773 -0.470912 0.075083 -0.080143 -0.018352 0.086714 0.542642 0.440146 0.133292 -0.033881 -0.096867 -0.024461 0.093849 0.328487 -0.066624 0.328860 0.018522 0.136082 0.190497 -0.343677 0.173422 -0.055446 -0.006706 -0.031045 0.216724 0.136916 0.302810 0.168101 0.089631 0.099348 -0.284040 0.301424 -0.287762 -0.284089 0.231470 -0.177130 0.395968 0.085646 0.062689 -0.223146 -0.190149 0.015449 0.140444 0.052465 0.034522 -0.231956 0.070773 0.081258 -0.128923 0.469564 0.038924 -0.030104 0.129359 0.034399 0.193227 -0.012666 -0.184341 0.017769 -0.017843 0.179519 0.098556 0.387302 0.356406 -0.029808 0.151295 -0.041887 -0.387798 -0.059291 -0.315615 0.194356 0.135646 0.052516 0.076507 -0.032328 0.208928
一起 -0.551719 -0.174018 0.550384 -0.723469 0.430347 -0.200520 0.008792 0.125751 -0.392744 0.042548 0.243166 -0.177627 0.208845 -0.078231 -0.405920 0.718310 -0.532775 -0.184653 -0.458759 0.466381 -0.105668 -0.134147 -0.226214 -0.005747 0.193298 -0.097554 -0.753842 -0.048605 -0.664534 -0.312991 0.001212 0.529100 0.580204 0.442802 -0.411928 0.336854 -0.026894 0.585369 0.430213 0.264822 -0.006742 0.035781 -0.374780 0.453490 0.292464 0.138022 0.403220 -0.544483 0.026645 0.493565 0.399250 -0.089876 0.338086 -0.082801 -0.121200 0.178243 0.538447 0.245291 -0.079888 -0.209853 -0.010033 0.449434 -0.433992 -0.267778 -0.511864 -0.479642 0.442741 0.171546 -0.511493 0.477449 -0.166957 -0.150703 0.204070 -0.101008 -0.049413 0.440145 0.543622 0.182311 0.248321 0.439843 -0.436734 -0.553491 0.317488 0.492414 0.409954 -0.151057 0.177908 -0.408430 0.341801 -0.421355 -0.571409 0.303461 0.187624 -0.211271 -0.288472 0.488919 0.041418 -0.012707 0.779147 0.885737
這種 -0.310031 -0.469769 -0.181634 0.583625 -0.118152 -0.103644 -0.438979 0.396413 0.223128 0.211049 0.105468 0.036209 0.145552 -0.309546 -0.283681 0.207055 0.273053 0.088504 0.035147 0.303908 0.569193 0.127745 -0.179916 0.068717 0.343719 0.397607 -0.002005 0.182716 0.057495 0.008197 -0.215845 0.289263 0.375714 0.450104 -0.017767 -0.231976 0.205699 0.182946 -0.235372 0.051066 -0.228999 -0.099831 0.560105 0.084498 -0.466748 -0.445632 -0.211918 -0.000077 0.228892 0.168211 -0.141979 0.110754 0.345257 0.077929 0.516526 -0.110810 0.353469 -0.278615 -0.298923 -0.015837 -0.123874 0.249672 0.604220 0.202908 -0.180422 -0.034872 -0.730725 -0.041847 0.662407 0.129978 0.100291 0.639801 0.437974 -0.448006 0.446587 -0.402684 -0.557104 0.139809 0.465633 -0.274631 -0.089276 0.094841 0.075149 0.124860 0.118800 0.610521 0.165130 0.090499 0.183199 0.505609 -0.492839 0.042607 0.184720 0.219338 0.277177 0.358819 -0.210243 0.180097 -0.124385 0.039076
大 0.566803 -0.434314 -0.942741 -0.097883 -0.292752 0.317191 -0.580269 0.296144 0.357144 0.043283 0.318430 0.628410 -0.272640 0.764819 0.535901 -0.036705 0.663325 -0.515039 -0.295144 -0.078317 0.534019 0.367531 -0.041427 0.841520 0.482271 0.872314 -0.040423 -0.068569 0.364017 -0.238797 -0.256539 0.113092 0.467206 -0.069818 -0.165499 0.094091 0.191213 0.055346 0.247266 0.211859 0.632318 -0.716653 -0.391480 0.108320 -0.252344 0.686554 -0.553502 0.369379 -0.106463 -0.313026 0.471999 0.372735 0.231518 0.013534 0.685720 -0.570134 0.255589 0.204591 0.119791 0.462169 0.249372 0.035597 0.223561 0.205160 -0.401748 0.390568 -0.474465 0.150147 -0.085583 -0.028700 0.604006 0.221045 0.392977 -0.688591 -0.832062 -0.515226 -0.196483 -0.015490 -0.508368 0.317836 -0.205964 -0.203185 0.330735 -0.054649 0.502809 0.402983 0.254495 0.201152 -0.829228 -0.081955 -0.179540 -0.734773 0.574677 -0.277755 -0.035579 0.163624 -0.449734 0.234775 -0.837537 -0.487925
以後 -0.363184 -0.063339 -0.034254 -0.157999 0.176916 -0.317323 -0.289680 0.210216 -0.234381 -0.253023 0.124941 -0.103159 0.161395 -0.255952 -0.152934 0.152073 0.005178 0.001905 0.085213 0.150258 -0.104281 0.151101 0.115026 0.342131 0.343986 -0.029402 0.046810 -0.320415 0.230598 0.037826 -0.383592 0.276991 0.166858 0.465731 0.087682 0.040211 0.021867 0.022391 0.063085 -0.117401 -0.338057 0.208001 0.150208 0.201928 0.223032 0.032487 0.182212 0.021610 0.260750 0.079354 0.362351 0.359141 0.140338 0.090939 0.168472 -0.068419 -0.117999 -0.030844 0.221959 0.054565 -0.006656 0.257323 -0.200163 -0.057999 -0.173663 -0.156462 -0.119292 -0.031134 -0.149822 -0.088822 0.113115 0.275356 0.331836 -0.492661 0.043850 -0.261595 0.128880 0.116210 -0.300396 -0.203635 -0.107788 -0.470382 -0.308409 0.422458 -0.013116 0.149112 0.110873 -0.032715 -0.305117 -0.092888 -0.115407 -0.017560 -0.066044 -0.040123 0.259826 0.142110 -0.144586 -0.316959 -0.125864 0.236969
看到 -0.166170 -0.249378 0.214190 0.284093 -0.032071 0.165490 0.045925 0.182669 -0.024916 0.140423 0.273125 0.570334 0.100535 0.137923 0.029005 -0.059205 -0.200378 0.009686 0.294561 0.135958 -0.083187 -0.351414 -0.232712 -0.159618 0.392735 0.203018 0.278753 -0.264725 0.221637 -0.474126 0.117884 0.079729 0.160272 0.109452 0.211343 0.036934 0.590617 -0.062742 0.019546 0.212322 0.128579 0.004620 0.239910 0.187520 0.148676 0.112918 0.089552 0.151498 0.202642 -0.227013 0.232788 0.050513 0.317154 -0.012982 -0.213803 -0.391565 0.220645 0.009532 -0.600996 -0.154216 0.041014 0.540449 -0.183073 0.141446 -0.232167 -0.082059 0.184081 -0.081743 0.046705 0.386372 0.121295 -0.101841 0.089045 0.076271 -0.064431 0.106995 0.237813 0.122775 -0.032072 0.020557 -0.462210 0.314096 0.362619 0.132473 -0.174319 0.203889 0.164603 0.106589 0.025954 0.052894 -0.196635 -0.041694 0.567260 0.153617 0.067825 0.242716 0.242337 -0.119024 0.014024 0.250199
別 -0.055554 -0.722172 -0.104676 -0.556236 0.247379 0.122356 0.183184 0.518138 -0.422182 -0.570142 -0.170792 0.642462 0.696466 0.404972 -0.625441 -0.463813 -0.315135 0.037247 0.056636 0.003183 -0.182496 0.273477 -0.094560 -0.391620 0.640359 0.018117 0.177392 -0.007554 -0.089664 0.269115 -0.168610 0.655829 -0.323945 0.537195 -0.000898 -0.325945 0.675195 0.150016 0.368774 -0.296980 0.088783 0.534326 0.776105 -0.056207 0.294230 0.006301 0.322189 0.604230 0.506960 -0.007520 0.010044 -0.365251 0.117780 0.066305 -0.077606 -0.867238 -0.712085 0.694485 0.468328 -0.056615 0.146920 0.240144 -0.703391 -0.755341 0.365911 -0.016608 -0.352643 -0.029607 -0.738797 0.604820 0.217538 -0.360194 0.497932 -0.726119 -0.227152 -0.610135 0.516363 0.352172 -0.482078 -0.288859 -0.696253 -0.810081 -0.151320 0.814871 -0.305432 -0.595678 -0.158973 0.497221 0.211793 -0.070051 0.830270 -0.292370 -0.083927 -0.503201 -0.221952 -0.033084 -0.333445 -0.756118 0.213275 0.128662
